{"learner":{"attributes":{},"feature_names":["size_sqm","bedrooms","bathrooms","has_maid_room","type_encoded","payment_method_encoded","governorate_encoded","sub_area_encoded","area_price_per_sqm","sqm_per_bedroom"],"feature_types":["float","float","float","int","int","int","int","int","float","float"],"gradient_booster":{"model":{"cats":{"enc":[],"feature_segments":[],"sorted_idx":[]},"gbtree_model_param":{"num_parallel_tree":"1","num_trees":"218"},"iteration_indptr":[0,1,2,3,4,5,6,7,8,9,10,11,12,13,14,15,16,17,18,19,20,21,22,23,24,25,26,27,28,29,30,31,32,33,34,35,36,37,38,39,40,41,42,43,44,45,46,47,48,49,50,51,52,53,54,55,56,57,58,59,60,61,62,63,64,65,66,67,68,69,70,71,72,73,74,75,76,77,78,79,80,81,82,83,84,85,86,87,88,89,90,91,92,93,94,95,96,97,98,99,100,101,102,103,104,105,106,107,108,109,110,111,112,113,114,115,116,117,118,119,120,121,122,123,124,125,126,127,128,129,130,131,132,133,134,135,136,137,138,139,140,141,142,143,144,145,146,147,148,149,150,151,152,153,154,155,156,157,158,159,160,161,162,163,164,165,166,167,168,169,170,171,172,173,174,175,176,177,178,179,180,181,182,183,184,185,186,187,188,189,190,191,192,193,194,195,196,197,198,199,200,201,202,203,204,205,206,207,208,209,210,211,212,213,214,215,216,217,218],"tree_info":[0,0,0,0,0,0,0,0,0,0,0,0,0,0,0,0,0,0,0,0,0,0,0,0,0,0,0,0,0,0,0,0,0,0,0,0,0,0,0,0,0,0,0,0,0,0,0,0,0,0,0,0,0,0,0,0,0,0,0,0,0,0,0,0,0,0,0,0,0,0,0,0,0,0,0,0,0,0,0,0,0,0,0,0,0,0,0,0,0,0,0,0,0,0,0,0,0,0,0,0,0,0,0,0,0,0,0,0,0,0,0,0,0,0,0,0,0,0,0,0,0,0,0,0,0,0,0,0,0,0,0,0,0,0,0,0,0,0,0,0,0,0,0,0,0,0,0,0,0,0,0,0,0,0,0,0,0,0,0,0,0,0,0,0,0,0,0,0,0,0,0,0,0,0,0,0,0,0,0,0,0,0,0,0,0,0,0,0,0,0,0,0,0,0,0,0,0,0,0,0,0,0,0,0,0,0,0,0,0,0,0,0,0,0,0,0,0,0],"trees":[{"base_weights":[7.9474284E-4,-3.2330823E-1,6.827472E-1,-8.051783E-1,-2.3204023E-1,4.0659752E-1,1.1853307E0,-9.640627E-1,-3.891557E-1,-3.703961E-1,1.1460587E-2,2.8120288E-1,6.03406E-1,1.0369589E0,1.7136552E0,-1.2553573E0,-8.716183E-1,-6.8359447E-1,-2.4096455E-1,-5.088083E-1,-1.3990854E-1,-2.4062985E-1,2.112391E-1,1.5052554E-1,4.5940998E-1,4.704924E-1,8.6304086E-1,-0E0,1.0558895E0,1.0356477E-1,1.3747004E-1,-9.1419704E-2,-4.5735486E-2,-8.111386E-2,-7.8318053E-1,-3.5815126E-1,-7.725805E-1,-3.862579E-1,5.3437438E-2,-2.5305718E-1,-6.022615E-1,6.640113E-2,-2.3803844E-1,-5.8420545E-1,-9.731508E-2,-9.180203E-2,3.6350214E-1,9.017957E-2,3.7523475E-1,1.17149256E-1,5.360081E-1,4.8982224E-1,-4.1173518E-2,7.508526E-2,6.3361245E-1,-2.681187E-1,3.251691E-2,9.045168E-1,1.2075746E0,-5.57943E-1,-9.0819395E-1,-3.1056602E-2,-0E0,-5.8809537E-2,-1.3655707E-2,1.3528683E-2,-4.3579116E-1,-2.3932903E-1,1.5601107E-1,-3.1075904E-1,-6.791864E-3,-6.784437E-1,-3.5110646E-1,-8.147953E-2,1.8495584E-1,-3.3908087E-1,5.0060216E-2,-3.7107956E-1,-1.11410886E-1,-1.7895074E-1,1.2802429E-2,-9.783646E-3,-1.1004763E0,2.7391213E-1,4.7315E-1,2.4706788E-1,1.1670196E-2,4.1127756E-1,-2.5024408E-2,-1.6190311E-1,2.932294E-1,7.818814E-1,4.5040262E-1,5.273573E-1,2.2663198E-1,2.0471884E-1,9.9538165E-1,-0E0,-3.6160126E-2,7.019834E-2,7.422526E-1,9.4801366E-1,9.5735066E-2,-7.417374E-1,-0E0,-7.315633E-2,-5.7429917E-2,-4.9822725E-2,-2.875895E-1,-0E0,-2.803963E-2,2.6392922E-2,2.4540594E-2,-3.5824323E-1,-1.6034496E-1,-9.689139E-2,1.0820308E-2,-7.841229E-1,-6.0063654E-1,-7.533211E-2,-4.2722684E-1,-2.0970763E-1,-3.8153555E-2,-2.8243357E-1,2.2539951E-1,-3.8608912E-1,-8.320181E-2,-4.814167E-2,4.5207855E-1,-4.7055367E-2,-1.2517184E-1,-2.207224E-1,-2.981265E-3,-3.3835858E-2,6.526688E-2,2.8541923E-1,-1.1283953E-1,-9.519142E-2,-2.0448327E-2,2.190135E-1,3.819919E-1,5.3094286E-1,2.9600665E-1,-3.779076E-2,2.8749317E-1,-3.1327927E-1,1.0759139E-1,-0E0,4.8174015E-1,-1.9305399E-2,-0E0,2.981308E-2,1.6985787E-1,5.260884E-1,7.0552014E-2,3.4798312E-1,6.731476E-1,6.8986535E-1,4.0758553E-1,1.7370438E-2,2.6119143E-1,2.9485812E-2,8.690546E-2,1.6738184E-2,7.526732E-2,7.58481E-2,6.0449374E-1,3.1354204E-1,7.084616E-2,-5.841578E-2,-4.3027675E-1,3.8475618E-2,-1.3626397E-1,-2.7578233E-2,-1.5535288E-1,-0E0,8.143722E-2,-4.0457495E-2,-2.3885656E-2,-1.7718907E-1,-0E0,-1.5797019E-2,-3.2807656E-2,-8.0757946E-1,-4.749328E-1,-6.81623E-1,-5.1964015E-1,-1.4115101E-1,1.6350277E-2,-4.845407E-1,-1.575115E-1,-0E0,-2.0480672E-2,-6.6548645E-2,1.8275836E-2,-2.9551089E-2,-0E0,1.8605934E-2,8.421329E-2,-4.1450155E-1,-8.05337E-2,-1.594603E-1,4.0276814E-2,-7.345539E-2,2.5218174E-2,2.4487206E-1,5.4018125E-2,2.2223839E-1,-3.924558E-1,-2.450623E-1,8.691915E-3,-2.5867216E-2,4.482763E-2,7.9633474E-2,-7.530366E-2,1.6328776E-2,1.2869592E-1,1.5721697E-1,4.3153718E-1,-3.9235017E-1,-2.9556071E-2,3.6098757E-1,9.2655696E-2,5.163896E-1,2.3768249E-1,4.2924768E-1,4.364412E-2,4.2117584E-2,2.2022441E-1,3.577999E-1,-1.774002E-2,-2.481789E-2,6.632497E-3,3.9650944E-1,-2.5039352E-2,-1.2781239E-2,7.0804995E-3,5.9341943E-1,2.5273925E-1,-3.7024482E-3,4.8215277E-3,-1.0914386E-2,3.2239956E-1,6.2269706E-4,4.1023746E-2,2.5635606E-1,5.203235E-1,3.1832874E-2,5.9231047E-2,3.283704E-3,7.103104E-1,2.5673266E-4,4.534257E-1,3.751564E-3,-0E0,2.0956023E-2,3.8197573E-4,-0E0,1.9439476E-2,1.7451839E-1,6.4429104E-1,-0E0,3.8049307E-2,-3.5118315E-2,-2.0804175E-3,-1.947836E-4,6.319252E-3,-2.4350708E-2,1.3105266E-4,-0E0,-2.9608124E-1,-0E0,-3.8270517E-3,9.511756E-3,-0E0,-0E0,-1.4046864E-2,9.501532E-3,-1.4704992E-2,-6.89453E-2,8.654879E-4,-3.4532417E-2,-5.8271952E-2,-6.2884554E-2,-4.2871132E-2,-7.395474E-1,-5.0490844E-1,-4.9747905E-1,-9.3761873E-1,-1.8599826E-1,5.1738933E-4,-4.0544473E-2,-3.5762262E-1,2.2216707E-2,-4.4800296E-1,-8.832515E-2,9.565253E-4,2.8247954E-3,-0E0,-0E0,1.6872336E-1,-2.7250174E-1,-4.7952095E-1,-2.5527788E-2,8.4451824E-2,-6.847237E-3,-3.36808E-2,2.9811935E-2,-2.0224085E-1,2.2681098E-2,-1.00535244E-1,1.1584945E-1,2.6223268E-2,2.9708695E-1,-0E0,-2.9786813E-1,-4.4515327E-2,-1.3125409E-1,-1.9684153E-2,1.747014E-1,-7.976441E-3,-0E0,9.097715E-2,-0E0,-1.0150409E-1,7.615616E-3,-2.6342807E-2,2.3634891E-1,-2.667095E-3,-0E0,1.9488847E-1,5.662939E-3,3.4087658E-2,-3.2175314E-2,-0E0,1.2964255E-1,-2.0371738E-1,1.2562837E-1,2.7427448E-2,-0E0,1.7305357E-2,-0E0,4.007459E-2,2.8215435E-1,-1.7943871E-3,3.197353E-2,1.0034428E-2,1.0458491E-2,3.51703E-1,3.4048803E-2,4.635112E-1,-1.4050852E-2,1.4202932E-3,3.5918828E-2,9.0227675E-1,-1.5907343E-1,3.688002E-2,-0E0,-5.2667153E-3,1.3187724E-2,4.4280667E-2,-1.1935649E-2,3.038275E-2,2.804405E-2,9.773249E-4,4.5650983E-1,-2.0546442E-1,-0E0,5.6592077E-1,3.6326876E-1,5.2937295E-2,1.229436E-2,-8.111762E-2,2.7351615E-1,5.3659815E-1,8.854445E-2,-8.493016E-3,-0E0,2.4399273E-2,4.709733E-1,5.7765692E-2,3.5365717E-3,-3.9808955E-3,-3.1335108E-2,-8.20132E-3,-7.1884207E-3,-0E0,-1.028702E-2,-0E0,-3.8772795E-2,-5.632741E-2,-6.349201E-3,-3.710289E-2,-3.7321694E-2,-2.0864211E-2,-8.722832E-2,-1.1415078E-2,-1.6488869E-2,-4.416762E-3,-1.7976657E-2,-3.6264203E-2,-2.1664088E-3,1.1495276E-2,-4.2257402E-2,-0E0,-7.6128882E-3,-0E0,1.978304E-3,-1.9928352E-3,2.5934689E-2,-0E0,-2.1657417E-2,-0E0,-3.4769185E-2,-0E0,-0E0,1.7068025E-2,-4.4372412E-3,6.448093E-3,-2.376358E-2,-0E0,-9.433311E-3,1.4202381E-2,1.6672714E-2,-0E0,1.317388E-3,2.34703E-2,3.4331237E-3,-4.3865624E-3,-8.126059E-3,-2.4660436E-2,-1.3560027E-2,2.2749933E-3,1.8155534E-2,2.6500516E-3,-6.88105E-3,1.6468082E-3,5.1332905E-4,1.1178665E-2,5.6031756E-3,-2.7993994E-3,-8.190462E-3,-0E0,-7.3086037E-3,7.7712405E-3,-0E0,2.1645242E-2,-3.0079565E-3,-0E0,4.812689E-3,1.7997412E-2,2.660537E-2,2.5943927E-3,-2.8353428E-2,2.5948281E-3,-0E0,1.9121593E-2,2.2032503E-3,-5.714052E-3,-0E0,2.257437E-2,-6.815223E-3,8.103128E-3,6.526399E-3,3.9211635E-2,-1.0843334E-2,7.784296E-3,1.6952429E-2,3.728324E-2,7.2523537E-3,-0E0,-7.685209E-3,5.39141E-3,1.4789638E-2,7.186273E-2,-5.964519E-4,-2.5770111E-2,-1.6115148E-2,9.0760365E-3,-1.251605E-2,2.0760694E-3,1.600756E-2,4.617888E-2,-0E0,-2.4998853E-2,4.442873E-2,4.391754E-3,-0E0,3.3946604E-2,-2.5956284E-2,2.7035943E-3,2.339151E-2,-0E0,4.9792275E-2,2.7592635E-2,-7.89852E-3,1.61575E-2,2.3194896E-2,5.116979E-2],"categories":[],"categories_nodes":[],"categories_segments":[],"categories_sizes":[],"default_left":[0,0,0,0,0,0,0,0,0,0,0,0,0,0,0,0,0,0,0,0,0,0,0,0,0,0,0,0,0,0,0,0,0,0,0,0,0,0,0,0,0,0,0,0,0,0,0,0,0,0,0,0,0,0,0,0,0,0,0,0,0,0,0,0,0,0,0,0,0,0,0,0,0,0,0,0,0,0,0,0,0,0,0,0,0,0,0,0,0,0,0,0,0,0,0,0,0,0,0,0,0,0,0,0,0,0,0,0,0,0,0,0,0,0,0,0,0,0,0,0,0,0,0,0,0,0,0,0,0,0,0,0,0,0,0,0,0,0,0,0,0,0,0,0,0,0,0,0,0,0,0,0,0,0,0,0,0,0,0,0,0,0,0,0,0,0,0,0,0,0,0,0,0,0,0,0,0,0,0,0,0,0,0,0,0,0,0,0,0,0,0,0,0,0,0,0,0,0,0,0,0,0,0,0,0,0,0,0,0,0,0,0,0,0,0,0,0,0,0,0,0,0,0,0,0,0,0,0,0,0,0,0,0,0,0,0,0,0,0,0,0,0,0,0,0,0,0,0,0,0,0,0,0,0,0,0,0,0,0,0,0,0,0,0,0,0,0,0,0,0,0,0,0,0,0,0,0,0,0,0,0,0,0,0,0,0,0,0,0,0,0,0,0,0,0,0,0,0,0,0,0,0,0,0,0,0,0,0,0,0,0,0,0,0,0,0,0,0,0,0,0,0,0,0,0,0,0,0,0,0,0,0,0,0,0,0,0,0,0,0,0,0,0,0,0,0,0,0,0,0,0,0,0,0,0,0,0,0,0,0,0,0,0,0,0,0,0,0,0,0,0,0,0,0,0,0,0,0,0,0,0,0,0,0,0,0,0,0,0,0,0,0,0,0,0,0,0,0,0,0,0,0,0,0,0,0,0,0,0,0,0,0,0,0,0,0,0,0,0,0,0,0,0,0,0,0,0,0,0,0,0,0,0,0,0,0,0,0,0,0,0,0,0,0,0,0,0,0,0,0,0,0,0,0,0,0,0,0,0,0,0,0,0,0,0,0,0,0,0,0,0,0,0,0,0,0,0,0,0,0,0,0,0,0,0,0,0,0,0,0,0,0,0,0,0,0,0,0,0],"id":0,"left_children":[1,3,5,7,9,11,13,15,17,19,21,23,25,27,29,31,33,35,37,39,41,43,45,47,49,51,53,55,57,-1,-1,-1,-1,-1,59,61,63,65,67,69,71,73,75,77,79,81,83,85,87,89,91,93,-1,-1,95,97,-1,99,101,103,105,-1,-1,-1,-1,-1,107,109,111,113,115,117,119,121,123,125,127,129,-1,131,133,135,137,139,141,143,145,147,-1,149,151,153,155,157,159,161,163,-1,-1,-1,165,167,-1,169,171,-1,-1,-1,173,-1,-1,175,-1,177,179,181,-1,183,185,187,189,191,193,195,197,199,201,203,205,-1,207,209,211,213,215,217,219,-1,-1,221,223,225,227,-1,229,231,233,235,237,-1,239,-1,241,243,-1,245,247,249,251,253,255,-1,257,-1,-1,-1,259,261,-1,-1,263,265,267,-1,269,271,273,-1,-1,275,277,-1,279,281,283,285,287,289,-1,291,293,-1,-1,295,297,-1,-1,-1,299,301,303,305,307,309,-1,311,-1,313,315,317,-1,-1,319,321,323,325,327,329,331,333,335,337,339,341,343,345,-1,-1,347,349,351,-1,-1,353,355,357,-1,359,361,-1,-1,-1,363,-1,-1,365,367,-1,-1,-1,369,371,373,-1,-1,-1,-1,375,-1,377,379,-1,-1,-1,-1,-1,-1,-1,-1,381,383,-1,-1,-1,-1,-1,-1,-1,-1,385,-1,-1,-1,387,-1,389,391,393,395,397,-1,-1,399,401,403,405,-1,-1,-1,407,409,411,413,-1,415,417,-1,-1,419,-1,421,423,-1,425,427,429,-1,431,-1,433,435,-1,437,439,441,-1,443,445,447,-1,449,-1,-1,-1,-1,451,453,455,-1,457,-1,-1,-1,459,-1,-1,-1,461,463,465,467,-1,469,471,473,475,477,-1,-1,-1,-1,479,-1,-1,-1,481,483,-1,485,487,-1,-1,489,491,493,495,-1,-1,-1,497,-1,-1,-1,-1,-1,-1,-1,-1,-1,-1,-1,-1,-1,-1,-1,-1,-1,-1,-1,-1,-1,-1,-1,-1,-1,-1,-1,-1,-1,-1,-1,-1,-1,-1,-1,-1,-1,-1,-1,-1,-1,-1,-1,-1,-1,-1,-1,-1,-1,-1,-1,-1,-1,-1,-1,-1,-1,-1,-1,-1,-1,-1,-1,-1,-1,-1,-1,-1,-1,-1,-1,-1,-1,-1,-1,-1,-1,-1,-1,-1,-1,-1,-1,-1,-1,-1,-1,-1,-1,-1,-1,-1,-1,-1,-1,-1,-1,-1,-1,-1,-1,-1,-1,-1,-1,-1,-1,-1,-1,-1,-1,-1,-1,-1,-1,-1,-1,-1,-1],"loss_changes":[3.3766658E3,4.5345825E2,6.79647E2,1.058844E2,2.9393112E2,7.692987E1,1.2746338E2,2.5806763E1,1.8507927E1,1.7629883E2,1.5908395E2,4.4541748E1,3.9582184E1,2.641455E1,8.087158E0,7.89032E-1,1.6828491E1,2.0758667E0,1.3956945E1,8.135681E1,4.263841E1,6.763619E1,8.189096E1,1.4730501E1,2.053006E1,1.7584427E1,1.4266632E1,3.960092E0,2.4775513E1,0E0,0E0,0E0,0E0,0E0,1.640091E1,9.03244E-1,1.9693985E0,6.6930656E0,3.1495335E0,1.2923969E1,4.6461975E1,1.1978166E1,4.183819E1,8.15013E1,9.111825E0,4.744123E1,1.0243469E1,1.0812763E1,6.7169533E0,8.039846E0,1.1400879E1,6.7272797E0,0E0,0E0,2.8945473E1,1.5436114E0,0E0,5.1571045E0,1.756781E1,2.6569138E1,4.3536377E-1,0E0,0E0,0E0,0E0,0E0,6.0704994E0,7.839161E-1,1.5445483E0,4.57563E0,2.641789E0,1.2715332E1,1.1883049E1,1.3231165E0,7.305255E0,1.2040512E1,1.514026E1,2.3282719E1,0E0,3.9533253E0,1.0688515E0,1.6633324E1,5.282387E0,2.925434E0,3.7982864E0,9.542236E0,1.8910248E1,6.176201E0,0E0,1.1109368E0,6.2517166E-1,5.429924E0,9.545151E0,1.1477737E1,4.5001793E-1,1.6912255E0,2.9951324E0,0E0,0E0,0E0,7.491501E0,5.544693E0,0E0,2.3997192E0,4.3601352E-1,0E0,0E0,0E0,9.841385E-1,0E0,0E0,1.4809823E-1,0E0,8.1251526E-1,4.7072506E-1,6.760088E-1,0E0,3.026703E0,4.8413696E0,2.7609327E0,6.1770935E0,1.3236256E0,4.365363E-1,1.1876426E0,1.3597336E0,6.9994354E0,1.788001E0,2.780216E0,3.0040646E0,0E0,1.8247784E1,4.084944E0,2.507621E0,1.0080755E0,4.6890903E-1,1.6892672E0,9.067459E0,0E0,0E0,7.487217E0,2.77981E0,1.1731033E0,1.7537327E0,0E0,6.5565014E0,2.4835072E0,1.877269E1,1.269697E-1,3.3987808E0,0E0,1.1025452E-1,0E0,3.3916855E0,1.5704842E0,0E0,4.261986E0,2.764618E0,2.7891693E0,7.255615E0,3.820335E-2,4.2518044E-1,0E0,1.0679713E0,0E0,0E0,0E0,1.9096909E0,1.6243083E0,0E0,0E0,6.5476894E-1,2.1750027E-1,9.6998835E-1,0E0,1.6569171E0,3.2781295E-2,1.4136131E-1,0E0,0E0,7.010155E-1,7.5796497E-1,0E0,2.2361743E-1,6.0787964E-1,2.7201118E0,2.9054718E0,2.197464E0,1.0095417E0,0E0,2.4223099E0,5.2628145E0,0E0,0E0,3.9187664E-1,5.2949376E-2,0E0,0E0,0E0,6.263756E-1,6.1219635E0,4.276493E0,4.8600435E0,6.2843986E0,2.8762357E0,0E0,1.123991E-1,0E0,1.4702969E0,7.453613E-1,9.970627E-1,0E0,0E0,9.295698E-1,3.1012744E-2,4.4142532E-1,6.2634605E-1,1.421751E0,6.9956017E-1,2.2301102E-1,2.499217E0,9.193473E0,4.958458E-1,3.4812028E0,2.2406712E0,1.6491604E0,2.7941513E-1,0E0,0E0,2.8624873E0,7.3928394E0,4.252153E-1,0E0,0E0,2.6697468E1,2.8838773E0,7.940585E-2,0E0,2.1546936E-1,3.8908768E0,0E0,0E0,0E0,5.071907E-1,0E0,0E0,2.3186008E1,2.554554E0,0E0,0E0,0E0,1.3312378E0,8.383153E-1,4.121681E0,0E0,0E0,0E0,0E0,5.8006066E-1,0E0,6.247097E-1,2.261406E0,0E0,0E0,0E0,0E0,0E0,0E0,0E0,0E0,1.053167E-1,1.614945E-1,0E0,0E0,0E0,0E0,0E0,0E0,0E0,0E0,1.0479668E-1,0E0,0E0,0E0,1.9106707E-1,0E0,1.2401733E0,2.756157E-1,1.8747101E0,2.954424E0,1.5480971E-1,0E0,0E0,1.3573608E0,5.9231216E-1,2.2133417E0,2.1243405E-1,0E0,0E0,0E0,3.808737E-2,1.0783336E0,2.6918888E0,2.7665863E0,0E0,8.016536E-1,4.3263903E-1,0E0,0E0,7.122053E-1,0E0,2.6749492E0,5.9216356E-1,0E0,1.5469551E-1,8.329192E-2,1.2636423E-1,0E0,1.3065436E0,0E0,2.7654886E-2,2.956261E-1,0E0,3.123781E-2,1.6283593E-1,1.00128174E-1,0E0,9.0863013E-1,4.4440055E-1,3.442354E-2,0E0,1.0111451E-1,0E0,0E0,0E0,0E0,3.3003633E0,8.055454E0,8.5090077E-1,0E0,4.010243E-1,0E0,0E0,0E0,1.1788349E0,0E0,0E0,0E0,6.476403E-1,2.725029E0,9.128028E-1,1.1072388E0,0E0,1.2810577E-1,5.3376454E-1,2.6534004E0,2.934444E0,5.2824187E0,0E0,0E0,0E0,0E0,3.9502388E-1,0E0,0E0,0E0,6.2508698E0,2.1233046E0,0E0,2.3044434E0,1.2399178E0,0E0,0E0,1.474073E0,1.8001823E0,3.826828E0,1.1517346E0,0E0,0E0,0E0,1.4264584E0,0E0,0E0,0E0,0E0,0E0,0E0,0E0,0E0,0E0,0E0,0E0,0E0,0E0,0E0,0E0,0E0,0E0,0E0,0E0,0E0,0E0,0E0,0E0,0E0,0E0,0E0,0E0,0E0,0E0,0E0,0E0,0E0,0E0,0E0,0E0,0E0,0E0,0E0,0E0,0E0,0E0,0E0,0E0,0E0,0E0,0E0,0E0,0E0,0E0,0E0,0E0,0E0,0E0,0E0,0E0,0E0,0E0,0E0,0E0,0E0,0E0,0E0,0E0,0E0,0E0,0E0,0E0,0E0,0E0,0E0,0E0,0E0,0E0,0E0,0E0,0E0,0E0,0E0,0E0,0E0,0E0,0E0,0E0,0E0,0E0,0E0,0E0,0E0,0E0,0E0,0E0,0E0,0E0,0E0,0E0,0E0,0E0,0E0,0E0,0E0,0E0,0E0,0E0,0E0,0E0,0E0,0E0,0E0,0E0,0E0,0E0,0E0,0E0,0E0,0E0,0E0,0E0,0E0,0E0],"parents":[2147483647,0,0,1,1,2,2,3,3,4,4,5,5,6,6,7,7,8,8,9,9,10,10,11,11,12,12,13,13,14,14,15,15,16,16,17,17,18,18,19,19,20,20,21,21,22,22,23,23,24,24,25,25,26,26,27,27,28,28,34,34,35,35,36,36,37,37,38,38,39,39,40,40,41,41,42,42,43,43,44,44,45,45,46,46,47,47,48,48,49,49,50,50,51,51,54,54,55,55,57,57,58,58,59,59,60,60,66,66,67,67,68,68,69,69,70,70,71,71,72,72,73,73,74,74,75,75,76,76,77,77,79,79,80,80,81,81,82,82,83,83,84,84,85,85,86,86,87,87,89,89,90,90,91,91,92,92,93,93,94,94,95,95,96,96,100,100,101,101,103,103,104,104,108,108,111,111,113,113,114,114,115,115,117,117,118,118,119,119,120,120,121,121,122,122,123,123,124,124,125,125,126,126,127,127,128,128,130,130,131,131,132,132,133,133,134,134,135,135,136,136,139,139,140,140,141,141,142,142,144,144,145,145,146,146,147,147,148,148,150,150,152,152,153,153,155,155,156,156,157,157,158,158,159,159,160,160,162,162,166,166,167,167,170,170,171,171,172,172,174,174,175,175,176,176,179,179,180,180,182,182,183,183,184,184,185,185,186,186,187,187,189,189,190,190,193,193,194,194,198,198,199,199,200,200,201,201,202,202,203,203,205,205,207,207,208,208,209,209,212,212,213,213,214,214,215,215,216,216,217,217,218,218,219,219,220,220,221,221,222,222,223,223,224,224,225,225,228,228,229,229,230,230,233,233,234,234,235,235,237,237,238,238,242,242,245,245,246,246,250,250,251,251,252,252,257,257,259,259,260,260,269,269,270,270,279,279,283,283,285,285,286,286,287,287,288,288,289,289,292,292,293,293,294,294,295,295,299,299,300,300,301,301,302,302,304,304,305,305,308,308,310,310,311,311,313,313,314,314,315,315,317,317,319,319,320,320,322,322,323,323,324,324,326,326,327,327,328,328,330,330,335,335,336,336,337,337,339,339,343,343,347,347,348,348,349,349,350,350,352,352,353,353,354,354,355,355,356,356,361,361,365,365,366,366,368,368,369,369,372,372,373,373,374,374,375,375,379,379],"right_children":[2,4,6,8,10,12,14,16,18,20,22,24,26,28,30,32,34,36,38,40,42,44,46,48,50,52,54,56,58,-1,-1,-1,-1,-1,60,62,64,66,68,70,72,74,76,78,80,82,84,86,88,90,92,94,-1,-1,96,98,-1,100,102,104,106,-1,-1,-1,-1,-1,108,110,112,114,116,118,120,122,124,126,128,130,-1,132,134,136,138,140,142,144,146,148,-1,150,152,154,156,158,160,162,164,-1,-1,-1,166,168,-1,170,172,-1,-1,-1,174,-1,-1,176,-1,178,180,182,-1,184,186,188,190,192,194,196,198,200,202,204,206,-1,208,210,212,214,216,218,220,-1,-1,222,224,226,228,-1,230,232,234,236,238,-1,240,-1,242,244,-1,246,248,250,252,254,256,-1,258,-1,-1,-1,260,262,-1,-1,264,266,268,-1,270,272,274,-1,-1,276,278,-1,280,282,284,286,288,290,-1,292,294,-1,-1,296,298,-1,-1,-1,300,302,304,306,308,310,-1,312,-1,314,316,318,-1,-1,320,322,324,326,328,330,332,334,336,338,340,342,344,346,-1,-1,348,350,352,-1,-1,354,356,358,-1,360,362,-1,-1,-1,364,-1,-1,366,368,-1,-1,-1,370,372,374,-1,-1,-1,-1,376,-1,378,380,-1,-1,-1,-1,-1,-1,-1,-1,382,384,-1,-1,-1,-1,-1,-1,-1,-1,386,-1,-1,-1,388,-1,390,392,394,396,398,-1,-1,400,402,404,406,-1,-1,-1,408,410,412,414,-1,416,418,-1,-1,420,-1,422,424,-1,426,428,430,-1,432,-1,434,436,-1,438,440,442,-1,444,446,448,-1,450,-1,-1,-1,-1,452,454,456,-1,458,-1,-1,-1,460,-1,-1,-1,462,464,466,468,-1,470,472,474,476,478,-1,-1,-1,-1,480,-1,-1,-1,482,484,-1,486,488,-1,-1,490,492,494,496,-1,-1,-1,498,-1,-1,-1,-1,-1,-1,-1,-1,-1,-1,-1,-1,-1,-1,-1,-1,-1,-1,-1,-1,-1,-1,-1,-1,-1,-1,-1,-1,-1,-1,-1,-1,-1,-1,-1,-1,-1,-1,-1,-1,-1,-1,-1,-1,-1,-1,-1,-1,-1,-1,-1,-1,-1,-1,-1,-1,-1,-1,-1,-1,-1,-1,-1,-1,-1,-1,-1,-1,-1,-1,-1,-1,-1,-1,-1,-1,-1,-1,-1,-1,-1,-1,-1,-1,-1,-1,-1,-1,-1,-1,-1,-1,-1,-1,-1,-1,-1,-1,-1,-1,-1,-1,-1,-1,-1,-1,-1,-1,-1,-1,-1,-1,-1,-1,-1,-1,-1,-1,-1],"split_conditions":[9E0,2E0,3.11E2,6.8E1,1E0,2.4E2,6E2,6.1E1,1E0,4.5333332E1,1.27E2,6.7E1,6.7E1,3E0,7.8E2,5E0,3.05E1,7.6E1,3.675E1,6E0,6E0,6.7E1,6.7E1,1E0,1.2E1,6.6E1,7.2E1,4.4E2,4E2,1.0356477E-1,1.3747004E-1,-9.1419704E-2,-4.5735486E-2,-8.111386E-2,2.2E1,9E1,5.542857E1,4E0,7.7E1,1E0,1E0,1.86E2,5.65E1,6.6E1,3.5666668E1,8E0,1.68E2,6E0,6.5E1,3E0,7.1E1,1.5E1,-4.1173518E-2,7.508526E-2,7.8E1,4.1E2,3.251691E-2,3.6E2,5E0,1.4E1,8.2E1,-3.1056602E-2,-0E0,-5.8809537E-2,-1.3655707E-2,1.3528683E-2,3.1E1,3.825E1,4.5333332E1,1.71E2,1.63E2,3.85E1,1.5E1,1.42E2,5E0,8E1,4E0,1.3E1,-1.11410886E-1,1.17E2,1.15E2,6E0,8E0,7.8E1,5E0,3E0,8E0,1.1E1,-2.5024408E-2,1.36E2,7.2E1,7E1,1E0,6E0,2.48E2,1.3E1,1.1E1,-0E0,-3.6160126E-2,7.019834E-2,6E0,1.3E1,9.5735066E-2,1E0,1.5E1,-7.315633E-2,-5.7429917E-2,-4.9822725E-2,7.3E1,-0E0,-2.803963E-2,4.05E1,2.4540594E-2,1.12E2,4E0,1.2E2,1.0820308E-2,8E1,3E0,4.35E1,8E1,4.625E1,5.175E1,2.18E2,5.5E1,4E0,8.9E1,9E1,3.65E2,-4.7055367E-2,4.8E1,8.2E1,7E1,7.1E1,7.8E1,4E0,1.4E1,-9.519142E-2,-2.0448327E-2,7.1E1,3E0,2.05E2,7.1E1,-3.779076E-2,1.5E1,2.33E2,1.8E1,4E0,5.1E1,-1.9305399E-2,7.8E1,2.981308E-2,7.8E1,1.63E2,7.0552014E-2,7.8E1,1.81E2,5E0,8E0,6.125E1,7E0,2.9485812E-2,5E0,1.6738184E-2,7.526732E-2,7.58481E-2,8E0,9.1666664E1,7.084616E-2,-5.841578E-2,8.6E1,7E1,2E1,-2.7578233E-2,3.425E1,1.13E2,4.2666668E1,-4.0457495E-2,-2.3885656E-2,4.15E1,2.01E2,-1.5797019E-2,4.22E1,9.5E1,8.4E1,6.6E1,2.2E2,8E0,1.6350277E-2,3.9E1,8.7E1,-0E0,-2.0480672E-2,1E0,1.63E2,-2.9551089E-2,-0E0,1.8605934E-2,2.31E2,3.1E1,1.96E2,8.7E1,9.1E1,5.75E1,2.5218174E-2,6.6E1,5.4018125E-2,2.1E1,6.3E1,7.1E1,8.691915E-3,-2.5867216E-2,7.1E1,8.8E1,3.65E1,4E1,8.1E1,1.86E2,4.875E1,6.3333332E1,5.2E1,3.5E1,1E0,3.4E1,4.45E1,5.625E1,4.364412E-2,4.2117584E-2,7.8E1,1.2E1,1.9E2,-2.481789E-2,6.632497E-3,1.3E1,1.92E2,4.1333332E1,7.0804995E-3,3.675E1,5.5E1,-3.7024482E-3,4.8215277E-3,-1.0914386E-2,8.4E1,6.2269706E-4,4.1023746E-2,7.2E1,3.5333332E1,3.1832874E-2,5.9231047E-2,3.283704E-3,1.1E1,2.64E2,1.3E1,3.751564E-3,-0E0,2.0956023E-2,3.8197573E-4,5.9333332E1,1.9439476E-2,6E0,7.26E1,-0E0,3.8049307E-2,-3.5118315E-2,-2.0804175E-3,-1.947836E-4,6.319252E-3,-2.4350708E-2,1.3105266E-4,8.1E1,7.1E1,-0E0,-3.8270517E-3,9.511756E-3,-0E0,-0E0,-1.4046864E-2,9.501532E-3,-1.4704992E-2,1.51E2,8.654879E-4,-3.4532417E-2,-5.8271952E-2,8.3E1,-4.2871132E-2,2.1E1,7.6E1,1.8E2,2.21E2,1.47E2,5.1738933E-4,-4.0544473E-2,6.1E1,3E0,9E1,1.85E2,9.565253E-4,2.8247954E-3,-0E0,2.24E2,5.85E1,1E0,2.53E2,-2.5527788E-2,5.9E1,1.98E2,-3.36808E-2,2.9811935E-2,9.4E1,2.2681098E-2,1E0,5E1,2.6223268E-2,8.4E1,3.95E1,3.2E1,-4.4515327E-2,3.375E1,-1.9684153E-2,1.25E2,1.23E2,-0E0,1E0,7.2E1,8.2E1,7.615616E-3,1.25E2,1.17E2,1E0,-0E0,5.85E1,5.662939E-3,3.4087658E-2,-3.2175314E-2,-0E0,1.5E1,5.3666668E1,3E0,2.7427448E-2,4.0333332E1,1.7305357E-2,-0E0,4.007459E-2,1.31E2,-1.7943871E-3,3.197353E-2,1.0034428E-2,4.8333332E1,2.11E2,1.66E2,4.2E1,-1.4050852E-2,5.625E1,3.35E1,3E0,6E1,2.6E1,-0E0,-5.2667153E-3,1.3187724E-2,4.4280667E-2,4.1333332E1,3.038275E-2,2.804405E-2,9.773249E-4,1.76E2,1.4E1,-0E0,8.4E1,5.125E1,5.2937295E-2,1.229436E-2,5.3666668E1,5.9E1,2.7E1,4.95E1,-8.493016E-3,-0E0,2.4399273E-2,6E0,5.7765692E-2,3.5365717E-3,-3.9808955E-3,-3.1335108E-2,-8.20132E-3,-7.1884207E-3,-0E0,-1.028702E-2,-0E0,-3.8772795E-2,-5.632741E-2,-6.349201E-3,-3.710289E-2,-3.7321694E-2,-2.0864211E-2,-8.722832E-2,-1.1415078E-2,-1.6488869E-2,-4.416762E-3,-1.7976657E-2,-3.6264203E-2,-2.1664088E-3,1.1495276E-2,-4.2257402E-2,-0E0,-7.6128882E-3,-0E0,1.978304E-3,-1.9928352E-3,2.5934689E-2,-0E0,-2.1657417E-2,-0E0,-3.4769185E-2,-0E0,-0E0,1.7068025E-2,-4.4372412E-3,6.448093E-3,-2.376358E-2,-0E0,-9.433311E-3,1.4202381E-2,1.6672714E-2,-0E0,1.317388E-3,2.34703E-2,3.4331237E-3,-4.3865624E-3,-8.126059E-3,-2.4660436E-2,-1.3560027E-2,2.2749933E-3,1.8155534E-2,2.6500516E-3,-6.88105E-3,1.6468082E-3,5.1332905E-4,1.1178665E-2,5.6031756E-3,-2.7993994E-3,-8.190462E-3,-0E0,-7.3086037E-3,7.7712405E-3,-0E0,2.1645242E-2,-3.0079565E-3,-0E0,4.812689E-3,1.7997412E-2,2.660537E-2,2.5943927E-3,-2.8353428E-2,2.5948281E-3,-0E0,1.9121593E-2,2.2032503E-3,-5.714052E-3,-0E0,2.257437E-2,-6.815223E-3,8.103128E-3,6.526399E-3,3.9211635E-2,-1.0843334E-2,7.784296E-3,1.6952429E-2,3.728324E-2,7.2523537E-3,-0E0,-7.685209E-3,5.39141E-3,1.4789638E-2,7.186273E-2,-5.964519E-4,-2.5770111E-2,-1.6115148E-2,9.0760365E-3,-1.251605E-2,2.0760694E-3,1.600756E-2,4.617888E-2,-0E0,-2.4998853E-2,4.442873E-2,4.391754E-3,-0E0,3.3946604E-2,-2.5956284E-2,2.7035943E-3,2.339151E-2,-0E0,4.9792275E-2,2.7592635E-2,-7.89852E-3,1.61575E-2,2.3194896E-2,5.116979E-2],"split_indices":[4,2,0,7,4,0,0,0,4,9,0,7,7,7,0,4,9,7,9,7,7,7,7,5,4,7,7,0,0,0,0,0,0,0,7,0,9,4,0,5,5,0,9,7,9,4,0,7,7,2,7,4,0,0,7,0,0,0,2,7,0,0,0,0,0,0,9,9,9,0,0,9,7,0,7,7,2,7,0,0,0,7,7,7,4,7,7,4,0,0,7,7,5,7,0,4,4,0,0,0,7,4,0,5,7,0,0,0,7,0,0,9,0,0,2,0,0,7,2,9,7,9,9,0,9,2,7,7,0,0,7,7,7,7,7,2,7,0,0,7,2,0,7,0,4,0,7,2,7,0,7,0,7,0,0,7,0,7,7,9,7,0,2,0,0,0,7,9,0,0,0,0,7,0,9,0,9,0,0,9,0,0,9,0,7,7,0,7,0,9,7,0,0,5,0,0,0,0,0,7,0,7,7,9,0,7,0,7,7,7,0,0,7,0,9,9,7,0,9,9,7,9,5,9,9,9,0,0,7,4,0,0,0,7,0,9,0,9,7,0,0,0,7,0,0,7,9,0,0,0,4,0,4,0,0,0,0,9,0,2,9,0,0,0,0,0,0,0,0,7,0,0,0,0,0,0,0,0,0,0,0,0,0,7,0,7,7,0,0,0,0,0,7,2,7,0,0,0,0,0,9,5,0,0,7,0,0,0,7,0,5,7,0,0,9,9,0,9,0,0,0,0,5,7,7,0,0,0,5,0,9,0,0,0,0,7,9,2,0,9,0,0,0,0,0,0,0,9,0,0,9,0,9,9,2,7,7,0,0,0,0,9,0,0,0,0,4,0,7,9,0,0,9,7,7,9,0,0,0,2,0,0,0,0,0,0,0,0,0,0,0,0,0,0,0,0,0,0,0,0,0,0,0,0,0,0,0,0,0,0,0,0,0,0,0,0,0,0,0,0,0,0,0,0,0,0,0,0,0,0,0,0,0,0,0,0,0,0,0,0,0,0,0,0,0,0,0,0,0,0,0,0,0,0,0,0,0,0,0,0,0,0,0,0,0,0,0,0,0,0,0,0,0,0,0,0,0,0,0,0,0,0,0,0,0,0,0,0,0,0,0,0,0,0,0,0,0,0,0],"split_type":[0,0,0,0,0,0,0,0,0,0,0,0,0,0,0,0,0,0,0,0,0,0,0,0,0,0,0,0,0,0,0,0,0,0,0,0,0,0,0,0,0,0,0,0,0,0,0,0,0,0,0,0,0,0,0,0,0,0,0,0,0,0,0,0,0,0,0,0,0,0,0,0,0,0,0,0,0,0,0,0,0,0,0,0,0,0,0,0,0,0,0,0,0,0,0,0,0,0,0,0,0,0,0,0,0,0,0,0,0,0,0,0,0,0,0,0,0,0,0,0,0,0,0,0,0,0,0,0,0,0,0,0,0,0,0,0,0,0,0,0,0,0,0,0,0,0,0,0,0,0,0,0,0,0,0,0,0,0,0,0,0,0,0,0,0,0,0,0,0,0,0,0,0,0,0,0,0,0,0,0,0,0,0,0,0,0,0,0,0,0,0,0,0,0,0,0,0,0,0,0,0,0,0,0,0,0,0,0,0,0,0,0,0,0,0,0,0,0,0,0,0,0,0,0,0,0,0,0,0,0,0,0,0,0,0,0,0,0,0,0,0,0,0,0,0,0,0,0,0,0,0,0,0,0,0,0,0,0,0,0,0,0,0,0,0,0,0,0,0,0,0,0,0,0,0,0,0,0,0,0,0,0,0,0,0,0,0,0,0,0,0,0,0,0,0,0,0,0,0,0,0,0,0,0,0,0,0,0,0,0,0,0,0,0,0,0,0,0,0,0,0,0,0,0,0,0,0,0,0,0,0,0,0,0,0,0,0,0,0,0,0,0,0,0,0,0,0,0,0,0,0,0,0,0,0,0,0,0,0,0,0,0,0,0,0,0,0,0,0,0,0,0,0,0,0,0,0,0,0,0,0,0,0,0,0,0,0,0,0,0,0,0,0,0,0,0,0,0,0,0,0,0,0,0,0,0,0,0,0,0,0,0,0,0,0,0,0,0,0,0,0,0,0,0,0,0,0,0,0,0,0,0,0,0,0,0,0,0,0,0,0,0,0,0,0,0,0,0,0,0,0,0,0,0,0,0,0,0,0,0,0,0,0,0,0,0,0,0,0,0,0,0,0,0,0,0,0,0,0,0,0,0,0,0,0,0,0,0,0,0,0,0,0,0,0,0,0,0,0],"sum_hessian":[1.5269E4,1.035E4,4.919E3,1.642E3,8.708E3,3.18E3,1.739E3,1.183E3,4.59E2,5.555E3,3.153E3,1.951E3,1.229E3,1.367E3,3.72E2,2.72E2,9.11E2,1.47E2,3.12E2,3.465E3,2.09E3,1.391E3,1.762E3,1.133E3,8.18E2,8.22E2,4.07E2,2.5E1,1.342E3,1.9E2,1.82E2,2.52E2,2E1,2.1E2,7.01E2,3.8E1,1.09E2,2.11E2,1.01E2,9.34E2,2.531E3,6.7E2,1.42E3,4.04E2,9.87E2,5.87E2,1.175E3,9.01E2,2.32E2,1.54E2,6.64E2,8.1E2,1.2E1,2.1E2,1.97E2,1.6E1,9E0,6.87E2,6.55E2,2.6E2,4.41E2,2.9E1,9E0,9.6E1,1.3E1,1.4E1,1.97E2,2.2E1,7.9E1,7.52E2,1.82E2,1.934E3,5.97E2,2.94E2,3.76E2,1.054E3,3.66E2,3.37E2,6.7E1,5.72E2,4.15E2,5.47E2,4E1,6.59E2,5.16E2,2.93E2,6.08E2,2.24E2,8E0,5.7E1,9.7E1,1.61E2,5.03E2,7.02E2,1.08E2,9.4E1,1.03E2,8E0,8E0,4.33E2,2.54E2,2.45E2,4.1E2,1.94E2,6.6E1,1.75E2,2.66E2,6.3E1,1.34E2,1.1E1,1.1E1,5.3E1,2.6E1,5.62E2,1.9E2,1.22E2,6E1,8.01E2,1.133E3,1.34E2,4.63E2,6.4E1,2.3E2,2.6E1,3.5E2,8.85E2,1.69E2,2.94E2,7.2E1,1.49E2,1.88E2,4.56E2,1.16E2,2.08E2,2.07E2,1.37E2,4.1E2,2.8E1,1.2E1,4.51E2,2.08E2,3.79E2,1.37E2,1.1E1,2.82E2,1.34E2,4.74E2,3.5E1,1.89E2,3.3E1,2.4E1,3.9E1,5.8E1,8.1E1,8E1,3.54E2,1.49E2,2.87E2,4.15E2,2.1E1,8.7E1,2.7E1,6.7E1,1.1E1,9.2E1,6.6E1,1.88E2,2.2E1,2.23E2,1.46E2,4.8E1,5E1,1.6E1,6.7E1,6.7E1,2.8E1,2.5E1,3.8E1,5.24E2,1.7E2,2E1,3.2E1,9E1,7.36E2,6.5E1,5.47E2,5.86E2,1.15E2,1.9E1,3.76E2,8.7E1,1.6E1,4.8E1,1.67E2,6.3E1,1.7E1,9E0,2.68E2,8.2E1,8.05E2,8E1,1.1E2,5.9E1,2.82E2,1.2E1,4.9E1,2.3E1,8E1,1.08E2,4.3E2,2.6E1,1.4E1,1.02E2,4.7E1,1.61E2,1.3E2,7.7E1,8.1E1,5.6E1,8.8E1,3.22E2,2.05E2,2.46E2,9.9E1,1.09E2,1.88E2,1.91E2,2E1,1.17E2,2.32E2,5E1,1.26E2,8E0,1.5E2,3.24E2,2.6E1,9E0,1.2E2,6.9E1,1.3E1,1.1E1,1.6E1,4.2E1,1E1,7.1E1,2.41E2,1.13E2,7.1E1,7.8E1,1.1E1,2.76E2,4.5E1,3.7E2,1.3E1,8E0,7.2E1,1.5E1,4.9E1,1.8E1,2E1,1.68E2,1.1E1,1.1E1,3.8E1,1E1,1.6E1,3.4E1,8E0,8E0,3.2E1,3.5E1,2E1,8E0,1.5E1,1E1,1.7E1,1.53E2,1.2E1,8E0,6.4E1,2.6E1,4.1E1,6.95E2,1.9E1,4.6E1,3.99E2,1.48E2,5.66E2,2E1,9.4E1,2.1E1,2.1E2,1.66E2,5.3E1,3.4E1,1.43E2,2.4E1,4.4E1,1.9E1,4.2E1,4E1,2.64E2,5.41E2,3.1E1,4.9E1,7.9E1,3.1E1,2.4E1,3.5E1,1.3E1,2.69E2,3.2E1,1.7E1,6E1,2E1,8.6E1,2.2E1,1.08E2,3.22E2,3.4E1,6.8E1,8E0,3.9E1,3.1E1,1.3E2,4.9E1,8.1E1,4.6E1,3.1E1,1.1E1,7E1,1.1E1,4.5E1,7.7E1,1.1E1,1.65E2,1.57E2,2.7E1,1.78E2,1.55E2,9.1E1,1E1,8.9E1,9.7E1,1.2E1,1.69E2,1.9E1,5E1,6.7E1,6.1E1,1.71E2,8E0,4.2E1,9.1E1,5.9E1,1.07E2,2.17E2,1.4E1,1.2E1,1.3E1,1.07E2,2.6E1,4.3E1,3E1,1.2E1,1.7E2,7.1E1,1E1,1.03E2,3.3E1,2.43E2,1.8E1,2.7E1,1.26E2,2.44E2,3E1,1.9E1,1.2E1,8E0,9.3E1,7.5E1,2.1E1,1.1E1,1.3E1,2.2E1,3.8E1,2.6E1,1E1,9E0,1.02E2,2.97E2,1E1,1.38E2,4.85E2,8.1E1,1.2E1,8E0,5.9E1,3.5E1,1.09E2,5.7E1,3.4E1,1.9E1,2.4E1,1E1,1.14E2,2.9E1,1.9E1,2.3E1,1.4E1,2.6E1,2.38E2,2.6E1,5.28E2,1.3E1,3.2E1,1.7E1,5.9E1,2E1,1.7E1,1.8E1,2.48E2,2.1E1,1.6E1,1.6E1,1.1E1,4.9E1,9E0,1.1E1,2.6E1,6E1,8.4E1,2.4E1,1.4E1,2E1,2.6E1,4.2E1,2.7E1,1.2E1,1.9E1,1.2E1,1.07E2,2.3E1,5.8E1,2.3E1,1.5E1,3.1E1,1.6E1,1.5E1,3.1E1,3.9E1,3.9E1,1.26E2,8.8E1,6.9E1,1.2E1,1.5E1,1.14E2,4.1E1,1E1,8.7E1,1.9E1,3.1E1,3.4E1,3.3E1,1.2E1,4.9E1,4.5E1,1.26E2,9E0,3.3E1,1.2E1,7.9E1,1.1E1,4.8E1,6.7E1,4E1,5.1E1,1.66E2,9E0,1.7E1,8.4E1,8.6E1,3.2E1,3.9E1,8.9E1,1.4E1,1E1,2.3E1,9E0,1.8E1,1.02E2,2.4E1,1.05E2,1.39E2,9E0,2.1E1,6.7E1,2.6E1],"tree_param":{"num_deleted":"0","num_feature":"10","num_nodes":"499","size_leaf_vector":"1"}},{"base_weights":[1.2516078E-3,-2.4285418E-1,6.8541247E-1,-6.193499E-1,5.7591353E-2,1.6899066E-1,9.114694E-1,-1.0612669E0,-5.075203E-1,-4.7047153E-2,3.723347E-1,4.149456E-3,5.8629507E-1,5.934023E-1,1.2338794E0,-1.2088692E0,-8.656313E-1,-8.1897956E-1,-4.0369883E-1,-1.7577857E-1,2.0295818E-1,1.8029603E-1,6.4611554E-1,-6.2293194E-2,3.1683698E-1,4.4038728E-1,8.241758E-2,4.390096E-1,9.349717E-1,1.0926597E0,1.6173388E0,-1.0324E-1,-1.1064835E0,-9.9537563E-1,-5.155215E-2,-1.0743337E-1,-7.2887796E-1,-5.12058E-1,-2.1297312E-1,-4.4713163E-1,-1.0018188E-1,1.691795E-2,4.2043787E-1,-9.848393E-2,2.1022217E-1,5.724031E-1,6.001347E-2,-2.7801433E-1,1.3923444E-2,9.977975E-2,3.484634E-2,2.0080438E-1,5.38798E-1,3.082825E-1,5.1803035E-1,7.047215E-2,5.300884E-2,6.89785E-1,1.1833433E0,6.184503E-1,1.663112E0,-1.0561209E-1,-1.0023298E0,-7.516826E-2,-4.493766E-2,-8.3331454E-1,-4.91968E-1,-6.1723685E-1,-4.377746E-1,-2.976779E-1,-1.3166703E-2,-5.8741754E-1,-3.334932E-1,-2.1104087E-1,7.0124805E-2,-4.1705623E-1,5.004329E-2,4.275056E-1,-0E0,2.416807E-2,-2.2709756E-1,1.437791E-1,3.6094105E-1,4.3470004E-1,4.299506E-2,-8.529036E-2,-8.307003E-2,-1.10393904E-1,3.4630722E-1,-0E0,3.1173278E-2,3.2398453E-1,-6.797172E-2,4.3144992E-1,5.4984167E-2,1.9797191E-1,3.9072913E-1,3.3595875E-1,4.2301003E-2,5.1185064E-2,7.4975E-1,9.9034256E-1,9.735047E-2,6.906247E-2,3.2418505E-3,1.0157923E-1,1.349726E-1,-7.5773984E-2,-7.4067765E-1,-6.468067E-2,-5.080321E-2,-0E0,-3.5681907E-2,-6.2399274E-1,-7.16231E-3,-3.5925355E-2,-2.7821848E-1,-3.611734E-1,-1.6530322E-1,7.3488657E-3,-3.9896302E-2,-5.6606922E-2,-5.1639616E-1,-3.548756E-1,-1.0428014E-1,-3.877457E-1,-1.86128E-1,-2.4224188E-2,1.7501274E-1,-1.0076584E-1,-6.0285544E-1,2.5374594E-1,6.7240973E-3,6.6778797E-1,3.9736223E-1,1.3540827E-1,-4.574747E-2,-2.3557646E-2,-0E0,-0E0,2.1525238E-1,3.7707776E-1,-0E0,6.4536445E-3,3.337491E-2,-3.255303E-2,1.0096593E-2,-3.4576006E-2,-4.5760028E-2,1.9790018E-1,5.549363E-1,9.238521E-2,-3.7610963E-2,-0E0,3.0671854E-2,1.3375703E-1,-3.6861323E-2,4.6609136E-1,-5.2220066E-4,-1.09611E-2,2.3165753E-1,4.065194E-1,-0E0,3.7733942E-1,-1.6297044E-2,2.8138597E-2,-1.3391522E-2,8.019528E-1,2.3507819E-1,1.0069895E0,2.6379365E-2,-2.738436E-2,-5.9695907E-2,-6.7876565E-1,-3.7687685E-2,-2.5289232E-1,-6.2114093E-2,-3.7649545E-1,-6.7913406E-2,-2.9401502E-1,-6.9219105E-2,-4.4364847E-2,1.262984E-1,-6.2845355E-1,-1.8993476E-2,-3.107505E-2,-1.888298E-2,-0E0,-1.15989465E-2,-4.3649897E-1,6.984171E-3,-2.2801821E-1,-9.600783E-2,-7.825986E-2,2.9340412E-2,6.863395E-2,2.6442602E-1,-1.0667396E-2,-0E0,-5.2638635E-2,-7.574781E-3,7.120462E-3,3.595026E-1,-4.3326885E-2,1.6377406E-1,5.0808936E-2,9.983724E-3,2.1191326E-1,4.2170596E-1,-0E0,1.2540113E-2,-9.197125E-3,-0E0,6.827124E-3,-8.320458E-3,-7.5691044E-2,1.1211758E-1,2.5835305E-1,5.256635E-2,2.686181E-1,3.207323E-2,-9.307978E-2,3.0351505E-1,-1.9439976E-1,1.6912313E-2,2.6015216E-1,-9.503807E-3,2.282373E-1,6.1383136E-2,-0E0,1.0815117E-2,4.9836836E-3,-1.0734091E-1,-0E0,1.4185905E-2,2.804423E-1,5.481063E-1,-0E0,2.5007924E-1,1.0939359E-2,4.2811438E-1,4.583825E-1,1.3324022E-1,7.49921E-2,4.7508202E-2,2.5483247E-2,-0E0,1.0176075E0,2.4568463E-2,-5.37615E-1,-5.178219E-2,-3.021907E-1,-9.616971E-2,-3.0524534E-1,-4.7898304E-1,-1.0086496E-2,-0E0,-1.8203872E-1,-2.7551606E-2,-1.1184697E-1,5.180581E-2,3.962695E-2,-1.12236E-1,-0E0,1.4974877E-1,-4.7726776E-2,-2.078214E-1,-5.320702E-1,-2.3238489E-1,-2.6057637E-1,-7.498369E-2,-3.0512854E-1,-6.7771465E-2,-1.8028887E-2,-4.6702635E-2,-2.8109718E-2,7.5700246E-2,8.952162E-2,-1.234167E-2,1.3353931E-2,3.0056068E-1,2.90143E-2,-0E0,-7.769887E-2,1.4314572E-2,6.80702E-3,2.0270865E-2,-0E0,3.108243E-1,3.2598134E-2,2.7727312E-1,-9.342916E-2,-0E0,-1.7370628E-5,1.4530954E-1,-0E0,2.7714002E-1,-1.1207269E-2,1.810779E-2,2.0899868E-2,-0E0,-1.9863395E-1,-0E0,2.9653814E-2,6.3947053E-3,-2.6821798E-1,-1.9590715E-2,-8.6886376E-2,7.718258E-2,1.1304455E-1,3.549601E-2,3.4574077E-2,5.5909394E-3,-1.3608414E-2,-0E0,6.295756E-4,3.4551618E-1,3.5368368E-1,4.792404E-2,3.392314E-2,1.7130008E-1,3.1305604E-2,4.1291662E-3,7.840631E-3,3.4214143E-2,1.644323E-1,-0E0,9.0681416E-1,8.3261535E-2,-4.489354E-2,-2.4655063E-2,-2.5106983E-2,-7.912385E-3,-1.0710248E-2,-0E0,-2.371012E-2,-1.4153435E-2,-3.61491E-2,-1.1958898E-2,-1.8370364E-2,-0E0,-1.1465904E-2,-5.444477E-4,1.2388085E-2,-1.160051E-2,-2.4914707E-3,1.4699865E-2,-2.0728184E-2,-2.0984174E-3,1.4351715E-2,-0E0,-0E0,-2.6708603E-2,-2.089104E-2,-4.406596E-2,-5.6753475E-3,-4.7677886E-2,-0E0,-1.8924572E-2,-8.598441E-3,-0E0,-0E0,-2.7466686E-2,-7.232169E-3,1.0004402E-3,-0E0,-4.5845443E-3,3.2888965E-3,-5.3093457E-3,-0E0,6.9468603E-3,-0E0,7.376071E-3,-2.9543939E-3,-0E0,-5.1920176E-3,9.351064E-3,-6.0159445E-4,2.2613369E-2,-9.55768E-3,-7.868331E-4,2.663003E-3,-3.5897712E-3,1.4762537E-2,-1.1783624E-2,2.0297293E-3,2.6598526E-2,-0E0,2.2754556E-2,-7.797526E-3,-0E0,1.298703E-2,-0E0,-9.247627E-3,1.3396644E-2,2.0147238E-2,6.2076934E-4,2.1799621E-3,-8.528284E-3,-0E0,-2.171527E-2,1.7289411E-3,-8.400321E-3,-2.3516692E-2,-9.4228826E-4,4.6952376E-3,-7.572353E-3,-1.10298E-2,5.2231182E-3,1.2542592E-2,-0E0,1.1545076E-2,-3.039133E-3,1.8428193E-2,-8.498081E-3,-5.5744187E-3,-0E0,3.647364E-2,1.07467E-2,3.1288043E-2,4.8230245E-4,2.194958E-2,8.806732E-3,-0E0,1.4166565E-2,6.916741E-2,4.4509955E-2],"categories":[],"categories_nodes":[],"categories_segments":[],"categories_sizes":[],"default_left":[0,0,0,0,0,0,0,0,0,0,0,0,0,0,0,0,0,0,0,0,0,0,0,0,0,0,0,0,0,0,0,0,0,0,0,0,0,0,0,0,0,0,0,0,0,0,0,0,0,0,0,0,0,0,0,0,0,0,0,0,0,0,0,0,0,0,0,0,0,0,0,0,0,0,0,0,0,0,0,0,0,0,0,0,0,0,0,0,0,0,0,0,0,0,0,0,0,0,0,0,0,0,0,0,0,0,0,0,0,0,0,0,0,0,0,0,0,0,0,0,0,0,0,0,0,0,0,0,0,0,0,0,0,0,0,0,0,0,0,0,0,0,0,0,0,0,0,0,0,0,0,0,0,0,0,0,0,0,0,0,0,0,0,0,0,0,0,0,0,0,0,0,0,0,0,0,0,0,0,0,0,0,0,0,0,0,0,0,0,0,0,0,0,0,0,0,0,0,0,0,0,0,0,0,0,0,0,0,0,0,0,0,0,0,0,0,0,0,0,0,0,0,0,0,0,0,0,0,0,0,0,0,0,0,0,0,0,0,0,0,0,0,0,0,0,0,0,0,0,0,0,0,0,0,0,0,0,0,0,0,0,0,0,0,0,0,0,0,0,0,0,0,0,0,0,0,0,0,0,0,0,0,0,0,0,0,0,0,0,0,0,0,0,0,0,0,0,0,0,0,0,0,0,0,0,0,0,0,0,0,0,0,0,0,0,0,0,0,0,0,0,0,0,0,0,0,0,0,0,0,0,0,0,0,0,0,0,0,0,0,0,0,0,0,0,0,0,0,0,0,0,0,0,0,0,0,0,0,0,0,0,0,0,0,0,0,0,0,0,0,0,0,0,0,0,0,0,0,0,0,0,0,0,0,0,0,0,0,0,0,0,0,0,0,0,0,0,0,0,0,0,0,0,0,0,0,0,0,0,0,0,0,0,0,0,0,0,0,0,0,0,0,0,0,0,0,0],"id":1,"left_children":[1,3,5,7,9,11,13,15,17,19,21,23,25,27,29,31,33,35,37,39,41,43,45,47,49,51,-1,53,55,57,59,-1,61,63,-1,-1,65,67,69,71,73,75,77,79,81,83,-1,85,87,89,-1,91,93,95,97,-1,-1,99,101,103,105,-1,107,-1,-1,109,111,113,115,117,119,121,123,125,127,129,131,133,-1,135,137,139,141,143,-1,145,-1,147,149,151,-1,153,155,157,-1,159,161,163,-1,165,167,169,-1,-1,-1,-1,-1,-1,171,-1,-1,-1,-1,173,-1,-1,175,177,179,181,-1,-1,183,185,187,189,191,193,195,197,199,201,203,205,207,209,211,-1,213,215,217,219,-1,-1,-1,-1,221,-1,223,225,227,229,231,-1,-1,233,-1,235,-1,-1,237,239,-1,241,-1,-1,-1,243,245,247,-1,-1,-1,249,-1,251,-1,253,255,257,259,261,263,265,-1,-1,-1,-1,-1,267,-1,269,271,273,275,277,279,-1,-1,-1,-1,-1,281,283,285,-1,-1,287,289,-1,-1,-1,-1,-1,-1,291,293,295,297,299,-1,301,303,305,307,309,-1,311,-1,-1,-1,-1,313,-1,-1,315,317,-1,319,-1,321,323,325,-1,-1,-1,-1,327,-1,329,-1,331,333,335,337,-1,-1,339,-1,341,343,345,347,-1,349,-1,351,353,355,357,359,361,363,-1,365,367,369,371,373,375,377,-1,-1,379,-1,381,-1,383,385,-1,387,389,-1,-1,391,393,395,397,-1,-1,-1,399,401,-1,-1,403,405,407,409,411,-1,-1,413,-1,415,-1,417,419,-1,-1,421,-1,-1,-1,-1,423,-1,425,-1,-1,-1,-1,-1,-1,-1,-1,-1,-1,-1,-1,-1,-1,-1,-1,-1,-1,-1,-1,-1,-1,-1,-1,-1,-1,-1,-1,-1,-1,-1,-1,-1,-1,-1,-1,-1,-1,-1,-1,-1,-1,-1,-1,-1,-1,-1,-1,-1,-1,-1,-1,-1,-1,-1,-1,-1,-1,-1,-1,-1,-1,-1,-1,-1,-1,-1,-1,-1,-1,-1,-1,-1,-1,-1,-1,-1,-1,-1,-1,-1,-1,-1,-1,-1,-1,-1,-1,-1,-1,-1,-1,-1,-1,-1,-1,-1,-1,-1],"loss_changes":[2.554164E3,1.2754237E3,4.6774243E2,2.4359973E2,2.0689331E2,8.389873E1,2.8204663E2,2.3109253E1,1.26822876E2,1.5148138E2,8.10148E1,1.8807426E1,2.5527145E1,7.1629E1,6.587842E1,5.9119263E0,3.5667725E0,5.6140564E1,6.0974792E1,6.298896E1,6.4067726E1,7.947424E0,6.2070923E0,1.2357315E1,5.166192E0,5.425667E0,0E0,8.632095E0,3.1173706E-1,3.245569E1,1.0495239E1,0E0,8.689789E0,8.9012146E-1,0E0,0E0,1.9033112E1,1.2786652E1,1.8229221E1,8.975174E0,4.629153E1,1.2086941E1,2.383957E0,1.6572049E0,7.6607475E0,1.678772E-1,0E0,3.1793324E1,2.2693392E1,2.5573664E0,0E0,3.404239E0,2.414257E0,2.5260658E0,6.869934E0,0E0,0E0,6.4901123E0,2.3168823E1,3.1475458E0,6.1879883E0,0E0,1.1616821E0,0E0,0E0,1.5193787E0,1.24263E0,1.6217041E0,1.1169769E1,5.62175E0,4.47302E0,1.449028E0,1.2033501E0,5.5959396E0,9.700221E0,2.4263115E0,6.8353353E0,3.0728302E0,0E0,4.6569148E-1,1.0755014E0,6.311432E0,1.5582504E0,6.1338806E-1,0E0,6.4597726E0,0E0,8.848778E0,3.3778687E0,2.4667084E-1,0E0,2.6477542E0,3.2727683E0,2.7784252E0,0E0,2.315423E0,8.287964E-1,5.0096645E0,0E0,2.3444123E0,2.9403992E0,1.4894104E0,0E0,0E0,0E0,0E0,0E0,0E0,4.4821167E-1,0E0,0E0,0E0,0E0,1.2104797E0,0E0,0E0,3.3184643E0,1.6678467E0,2.7218432E0,2.1125648E0,0E0,0E0,4.824085E0,1.315033E0,1.633541E-1,4.682518E0,4.487816E0,1.5207771E0,3.9221544E0,1.719507E-1,1.0840025E0,1.5463247E0,5.493312E0,4.756031E-1,1.8914261E0,6.41602E-2,1.7647699E-1,0E0,2.5927144E-1,1.6701081E0,2.3972454E0,6.955147E-1,0E0,0E0,0E0,0E0,4.3514752E0,0E0,3.4059577E0,2.255841E0,3.846922E0,1.0382652E-1,4.1760933E-1,0E0,0E0,1.2842411E-1,0E0,5.813427E-1,0E0,0E0,5.997057E-1,1.6036224E-1,0E0,2.7253532E0,0E0,0E0,0E0,9.620285E-1,2.986604E-1,7.662964E-2,0E0,0E0,0E0,5.531311E-1,0E0,2.1183033E0,0E0,2.0769348E0,3.378269E-1,1.9184685E-1,9.135037E-1,1.3641518E0,3.9619875E-1,1.3978767E0,0E0,0E0,0E0,0E0,0E0,1.8126144E0,0E0,3.9331894E0,2.0246024E0,1.0521828E0,7.1276903E-1,4.7191215E-1,1.8108768E0,0E0,0E0,0E0,0E0,0E0,1.3819704E0,4.202016E0,2.9046192E0,0E0,0E0,1.857156E0,1.840126E0,0E0,0E0,0E0,0E0,0E0,0E0,2.417621E-1,4.6138012E-1,1.2109776E0,1.527205E0,5.497389E-1,0E0,7.451422E-1,1.9487071E-1,1.0157542E0,1.4940289E0,2.0871143E0,0E0,1.3688636E0,0E0,0E0,0E0,0E0,1.4449176E-1,0E0,0E0,4.9857807E-1,1.4417267E-1,0E0,1.6840887E0,0E0,2.0429611E-1,2.3695755E-1,2.3321784E-1,0E0,0E0,0E0,0E0,1.0098572E0,0E0,6.777458E-1,0E0,1.8687401E0,5.046576E-1,5.904579E-2,6.7513275E-1,0E0,0E0,9.10002E-1,0E0,4.4628823E-1,1.0670377E0,1.4040451E0,1.5339878E0,0E0,5.854342E-1,0E0,7.782534E-1,4.881668E-1,3.01501E0,1.4754753E0,6.2969273E-1,1.38344E0,1.2050563E0,0E0,2.521463E-1,3.9230222E-1,2.3504376E-1,1.519382E-1,4.3569785E-2,4.9580246E-1,1.5831318E0,0E0,0E0,1.5469544E0,0E0,1.3565785E-1,0E0,1.1934216E0,5.6967497E-1,0E0,1.2541399E0,4.23432E-2,0E0,0E0,5.366336E-1,8.3995116E-1,1.8699265E-1,4.430431E-1,0E0,0E0,0E0,7.826966E-1,2.8325307E-1,0E0,0E0,7.0464754E-1,3.7394866E-1,1.0343763E0,1.095465E0,6.376462E-1,0E0,0E0,1.0461365E0,0E0,6.954992E-2,0E0,2.2161055E-1,8.2234526E-1,0E0,0E0,1.4168215E-1,0E0,0E0,0E0,0E0,5.2522182E-2,0E0,9.6951294E-1,0E0,0E0,0E0,0E0,0E0,0E0,0E0,0E0,0E0,0E0,0E0,0E0,0E0,0E0,0E0,0E0,0E0,0E0,0E0,0E0,0E0,0E0,0E0,0E0,0E0,0E0,0E0,0E0,0E0,0E0,0E0,0E0,0E0,0E0,0E0,0E0,0E0,0E0,0E0,0E0,0E0,0E0,0E0,0E0,0E0,0E0,0E0,0E0,0E0,0E0,0E0,0E0,0E0,0E0,0E0,0E0,0E0,0E0,0E0,0E0,0E0,0E0,0E0,0E0,0E0,0E0,0E0,0E0,0E0,0E0,0E0,0E0,0E0,0E0,0E0,0E0,0E0,0E0,0E0,0E0,0E0,0E0,0E0,0E0,0E0,0E0,0E0,0E0,0E0,0E0,0E0,0E0,0E0,0E0,0E0,0E0,0E0,0E0,0E0],"parents":[2147483647,0,0,1,1,2,2,3,3,4,4,5,5,6,6,7,7,8,8,9,9,10,10,11,11,12,12,13,13,14,14,15,15,16,16,17,17,18,18,19,19,20,20,21,21,22,22,23,23,24,24,25,25,27,27,28,28,29,29,30,30,32,32,33,33,36,36,37,37,38,38,39,39,40,40,41,41,42,42,43,43,44,44,45,45,47,47,48,48,49,49,51,51,52,52,53,53,54,54,57,57,58,58,59,59,60,60,62,62,65,65,66,66,67,67,68,68,69,69,70,70,71,71,72,72,73,73,74,74,75,75,76,76,77,77,79,79,80,80,81,81,82,82,83,83,85,85,87,87,88,88,89,89,91,91,92,92,93,93,95,95,96,96,97,97,99,99,100,100,101,101,108,108,113,113,116,116,117,117,118,118,119,119,122,122,123,123,124,124,125,125,126,126,127,127,128,128,129,129,130,130,131,131,132,132,133,133,134,134,135,135,136,136,138,138,139,139,140,140,141,141,146,146,148,148,149,149,150,150,151,151,152,152,155,155,157,157,160,160,161,161,163,163,167,167,168,168,169,169,173,173,175,175,177,177,178,178,179,179,180,180,181,181,182,182,183,183,189,189,191,191,192,192,193,193,194,194,195,195,196,196,202,202,203,203,204,204,207,207,208,208,215,215,216,216,217,217,218,218,219,219,221,221,222,222,223,223,224,224,225,225,227,227,232,232,235,235,236,236,238,238,240,240,241,241,242,242,247,247,249,249,251,251,252,252,253,253,254,254,257,257,259,259,260,260,261,261,262,262,264,264,266,266,267,267,268,268,269,269,270,270,271,271,272,272,274,274,275,275,276,276,277,277,278,278,279,279,280,280,283,283,285,285,287,287,288,288,290,290,291,291,294,294,295,295,296,296,297,297,301,301,302,302,305,305,306,306,307,307,308,308,309,309,312,312,314,314,316,316,317,317,320,320,325,325,327,327],"right_children":[2,4,6,8,10,12,14,16,18,20,22,24,26,28,30,32,34,36,38,40,42,44,46,48,50,52,-1,54,56,58,60,-1,62,64,-1,-1,66,68,70,72,74,76,78,80,82,84,-1,86,88,90,-1,92,94,96,98,-1,-1,100,102,104,106,-1,108,-1,-1,110,112,114,116,118,120,122,124,126,128,130,132,134,-1,136,138,140,142,144,-1,146,-1,148,150,152,-1,154,156,158,-1,160,162,164,-1,166,168,170,-1,-1,-1,-1,-1,-1,172,-1,-1,-1,-1,174,-1,-1,176,178,180,182,-1,-1,184,186,188,190,192,194,196,198,200,202,204,206,208,210,212,-1,214,216,218,220,-1,-1,-1,-1,222,-1,224,226,228,230,232,-1,-1,234,-1,236,-1,-1,238,240,-1,242,-1,-1,-1,244,246,248,-1,-1,-1,250,-1,252,-1,254,256,258,260,262,264,266,-1,-1,-1,-1,-1,268,-1,270,272,274,276,278,280,-1,-1,-1,-1,-1,282,284,286,-1,-1,288,290,-1,-1,-1,-1,-1,-1,292,294,296,298,300,-1,302,304,306,308,310,-1,312,-1,-1,-1,-1,314,-1,-1,316,318,-1,320,-1,322,324,326,-1,-1,-1,-1,328,-1,330,-1,332,334,336,338,-1,-1,340,-1,342,344,346,348,-1,350,-1,352,354,356,358,360,362,364,-1,366,368,370,372,374,376,378,-1,-1,380,-1,382,-1,384,386,-1,388,390,-1,-1,392,394,396,398,-1,-1,-1,400,402,-1,-1,404,406,408,410,412,-1,-1,414,-1,416,-1,418,420,-1,-1,422,-1,-1,-1,-1,424,-1,426,-1,-1,-1,-1,-1,-1,-1,-1,-1,-1,-1,-1,-1,-1,-1,-1,-1,-1,-1,-1,-1,-1,-1,-1,-1,-1,-1,-1,-1,-1,-1,-1,-1,-1,-1,-1,-1,-1,-1,-1,-1,-1,-1,-1,-1,-1,-1,-1,-1,-1,-1,-1,-1,-1,-1,-1,-1,-1,-1,-1,-1,-1,-1,-1,-1,-1,-1,-1,-1,-1,-1,-1,-1,-1,-1,-1,-1,-1,-1,-1,-1,-1,-1,-1,-1,-1,-1,-1,-1,-1,-1,-1,-1,-1,-1,-1,-1,-1,-1],"split_conditions":[2.31E2,6.08365E4,5.15625E4,1.01E2,1.8E2,5E0,3.17E2,4.808419E4,3.3838195E4,1.0047847E5,9.3916664E4,4.309091E4,5.75E2,9.3916664E4,5.5E2,6.1E1,7.7E1,1.8183674E4,1.73E2,1.05E2,1.26E2,6.1834984E4,2.16E2,2.3E1,2.8E2,3.919452E4,8.241758E-2,4E0,6.25E1,6.551192E4,4E0,-1.0324E-1,3.1225297E4,1E0,-5.155215E-2,-1.0743337E-1,1.86E2,1.35E2,4.6368242E4,8E4,7.2802195E4,6.5E1,5.65E1,1E0,4E0,1E0,6.001347E-2,1.0625E2,3.4E2,5.7E1,3.484634E-2,4.3E2,7.26E1,2.55E2,6.5E4,7.047215E-2,5.300884E-2,5.475E1,5E0,2.5E1,7.8E2,-1.0561209E-1,2E0,-7.516826E-2,-4.493766E-2,1.56E2,3.925E1,5.175E1,4.999375E4,4.98E1,6.037736E4,6.576703E4,3.725E1,6.2288137E4,1.36E2,2.2E1,2.2E1,1.5E1,-0E0,5.15E1,4.96E1,4.65E1,7.6E1,3.925E1,4.299506E-2,2.8074074E4,-8.307003E-2,3.1225297E4,4.1052633E4,5.3666668E1,3.1173278E-2,2.7E2,7E0,7.2E1,5.4984167E-2,3E0,7.6666664E1,3.07E2,4.2301003E-2,3.55E2,6.1834984E4,1.16666664E2,9.735047E-2,6.906247E-2,3.2418505E-3,1.0157923E-1,1.349726E-1,-7.5773984E-2,8E0,-6.468067E-2,-5.080321E-2,-0E0,-3.5681907E-2,4.999375E4,-7.16231E-3,-3.5925355E-2,6.037736E4,2.21E2,4.147217E4,2.08E2,-3.9896302E-2,-5.6606922E-2,8.6E1,9.2E1,1E0,5.4285713E1,1E0,1E0,1E0,5.7E1,1E0,9.2E1,3.875E1,4.4E1,3.5E1,4.4166668E1,5.4285713E1,-2.3557646E-2,2.15E2,1E0,5.5E1,2.06E2,-0E0,6.4536445E-3,3.337491E-2,-3.255303E-2,3.11E2,-3.4576006E-2,2.53E2,1.5E2,4E2,2.5E2,3E0,-0E0,3.0671854E-2,4.3E1,-3.6861323E-2,4.6E1,-5.2220066E-4,-1.09611E-2,4.8333332E1,5.8935066E4,-0E0,2.6E1,-1.6297044E-2,2.8138597E-2,-1.3391522E-2,6.034188E4,3.65E2,1.5E5,2.6379365E-2,-2.738436E-2,-5.9695907E-2,8E0,-3.7687685E-2,5.85E4,-6.2114093E-2,5.5E1,7.4E1,5.3333332E1,4E0,1.86E2,3E0,2E0,-1.8993476E-2,-3.107505E-2,-1.888298E-2,-0E0,-1.15989465E-2,1.54E2,6.984171E-3,4.725E1,1.2E2,3.0666666E1,1.16E2,4.725E1,3E0,-1.0667396E-2,-0E0,-5.2638635E-2,-7.574781E-3,7.120462E-3,4.0333332E1,3E0,1.0957994E5,5.0808936E-2,9.983724E-3,3E0,8.2E1,-0E0,1.2540113E-2,-9.197125E-3,-0E0,6.827124E-3,-8.320458E-3,6E0,3.925E1,6.576703E4,2.28E2,5.0833332E1,3.207323E-2,5.75E1,3.6E2,1E0,3.5679348E4,4.84E2,-9.503807E-3,1E0,6.1383136E-2,-0E0,1.0815117E-2,4.9836836E-3,3.5E1,-0E0,1.4185905E-2,5.1E1,3.25E2,-0E0,5.85E1,1.0939359E-2,7.5E4,4.625E1,2.89E2,7.49921E-2,4.7508202E-2,2.5483247E-2,-0E0,1.07684805E5,2.4568463E-2,1E0,-5.178219E-2,5.6E1,1E0,4.75E1,7.8E1,-1.0086496E-2,-0E0,5.2142857E1,-2.7551606E-2,7.4E1,2.3E2,5.85E4,1.92E2,-0E0,2.3E2,-4.7726776E-2,3.925E1,3.7666668E1,4.4333332E1,3.1666666E1,1.56E2,1.1E2,4.3666668E1,-1.8028887E-2,3.375E1,1.1E2,8.275924E4,1.43E2,1.61E2,3.7666668E1,7.5E4,2.90143E-2,-0E0,1E0,1.4314572E-2,4.175E1,2.0270865E-2,3.3E1,1.31E2,3.2598134E-2,1.42E2,4.6E1,-0E0,-1.7370628E-5,2.18E2,2.01E2,6.4E1,2.25E2,1.810779E-2,2.0899868E-2,-0E0,5.0833332E1,2.75E2,2.9653814E-2,6.3947053E-3,4.1052633E4,3.720497E4,1E0,2.75E2,4.5E2,3.549601E-2,3.4574077E-2,3.6E2,-1.3608414E-2,5.9333332E1,6.295756E-4,3.46E2,3.07E2,4.792404E-2,3.392314E-2,6.1834984E4,3.1305604E-2,4.1291662E-3,7.840631E-3,3.4214143E-2,4.8333332E1,-0E0,6.4E1,8.3261535E-2,-4.489354E-2,-2.4655063E-2,-2.5106983E-2,-7.912385E-3,-1.0710248E-2,-0E0,-2.371012E-2,-1.4153435E-2,-3.61491E-2,-1.1958898E-2,-1.8370364E-2,-0E0,-1.1465904E-2,-5.444477E-4,1.2388085E-2,-1.160051E-2,-2.4914707E-3,1.4699865E-2,-2.0728184E-2,-2.0984174E-3,1.4351715E-2,-0E0,-0E0,-2.6708603E-2,-2.089104E-2,-4.406596E-2,-5.6753475E-3,-4.7677886E-2,-0E0,-1.8924572E-2,-8.598441E-3,-0E0,-0E0,-2.7466686E-2,-7.232169E-3,1.0004402E-3,-0E0,-4.5845443E-3,3.2888965E-3,-5.3093457E-3,-0E0,6.9468603E-3,-0E0,7.376071E-3,-2.9543939E-3,-0E0,-5.1920176E-3,9.351064E-3,-6.0159445E-4,2.2613369E-2,-9.55768E-3,-7.868331E-4,2.663003E-3,-3.5897712E-3,1.4762537E-2,-1.1783624E-2,2.0297293E-3,2.6598526E-2,-0E0,2.2754556E-2,-7.797526E-3,-0E0,1.298703E-2,-0E0,-9.247627E-3,1.3396644E-2,2.0147238E-2,6.2076934E-4,2.1799621E-3,-8.528284E-3,-0E0,-2.171527E-2,1.7289411E-3,-8.400321E-3,-2.3516692E-2,-9.4228826E-4,4.6952376E-3,-7.572353E-3,-1.10298E-2,5.2231182E-3,1.2542592E-2,-0E0,1.1545076E-2,-3.039133E-3,1.8428193E-2,-8.498081E-3,-5.5744187E-3,-0E0,3.647364E-2,1.07467E-2,3.1288043E-2,4.8230245E-4,2.194958E-2,8.806732E-3,-0E0,1.4166565E-2,6.916741E-2,4.4509955E-2],"split_indices":[0,8,8,0,0,2,0,8,8,8,8,8,0,8,0,0,0,8,0,0,0,8,0,7,0,8,0,2,9,8,2,0,8,3,0,0,0,0,8,8,8,0,9,3,2,3,0,9,0,7,0,0,9,0,8,0,0,9,2,7,0,0,2,0,0,0,9,9,8,9,8,8,9,8,0,7,7,7,0,9,9,9,7,9,0,8,0,8,8,9,0,0,2,9,0,2,9,0,0,0,8,9,0,0,0,0,0,0,7,0,0,0,0,8,0,0,8,0,8,0,0,0,0,0,3,9,3,3,3,0,3,0,9,9,9,9,9,0,0,3,9,0,0,0,0,0,0,0,0,9,0,0,2,0,0,7,0,7,0,0,9,8,0,7,0,0,0,8,0,8,0,0,0,7,0,8,0,7,7,9,2,0,2,2,0,0,0,0,0,0,0,9,0,9,0,9,2,0,0,0,0,0,9,2,8,0,0,2,7,0,0,0,0,0,0,7,9,8,0,9,0,9,0,3,8,0,0,3,0,0,0,0,7,0,0,9,0,0,9,0,8,9,0,0,0,0,0,8,0,3,0,7,3,9,7,0,0,9,0,7,0,8,0,0,0,0,9,9,9,9,0,0,9,0,9,0,8,0,0,9,8,0,0,3,0,9,0,9,0,0,0,9,0,0,0,0,7,0,0,0,0,9,0,0,0,8,8,3,0,0,0,0,0,0,9,0,0,0,0,0,8,0,0,0,0,9,0,7,0,0,0,0,0,0,0,0,0,0,0,0,0,0,0,0,0,0,0,0,0,0,0,0,0,0,0,0,0,0,0,0,0,0,0,0,0,0,0,0,0,0,0,0,0,0,0,0,0,0,0,0,0,0,0,0,0,0,0,0,0,0,0,0,0,0,0,0,0,0,0,0,0,0,0,0,0,0,0,0,0,0,0,0,0,0,0,0,0,0,0,0,0,0,0,0,0,0,0],"split_type":[0,0,0,0,0,0,0,0,0,0,0,0,0,0,0,0,0,0,0,0,0,0,0,0,0,0,0,0,0,0,0,0,0,0,0,0,0,0,0,0,0,0,0,0,0,0,0,0,0,0,0,0,0,0,0,0,0,0,0,0,0,0,0,0,0,0,0,0,0,0,0,0,0,0,0,0,0,0,0,0,0,0,0,0,0,0,0,0,0,0,0,0,0,0,0,0,0,0,0,0,0,0,0,0,0,0,0,0,0,0,0,0,0,0,0,0,0,0,0,0,0,0,0,0,0,0,0,0,0,0,0,0,0,0,0,0,0,0,0,0,0,0,0,0,0,0,0,0,0,0,0,0,0,0,0,0,0,0,0,0,0,0,0,0,0,0,0,0,0,0,0,0,0,0,0,0,0,0,0,0,0,0,0,0,0,0,0,0,0,0,0,0,0,0,0,0,0,0,0,0,0,0,0,0,0,0,0,0,0,0,0,0,0,0,0,0,0,0,0,0,0,0,0,0,0,0,0,0,0,0,0,0,0,0,0,0,0,0,0,0,0,0,0,0,0,0,0,0,0,0,0,0,0,0,0,0,0,0,0,0,0,0,0,0,0,0,0,0,0,0,0,0,0,0,0,0,0,0,0,0,0,0,0,0,0,0,0,0,0,0,0,0,0,0,0,0,0,0,0,0,0,0,0,0,0,0,0,0,0,0,0,0,0,0,0,0,0,0,0,0,0,0,0,0,0,0,0,0,0,0,0,0,0,0,0,0,0,0,0,0,0,0,0,0,0,0,0,0,0,0,0,0,0,0,0,0,0,0,0,0,0,0,0,0,0,0,0,0,0,0,0,0,0,0,0,0,0,0,0,0,0,0,0,0,0,0,0,0,0,0,0,0,0,0,0,0,0,0,0,0,0,0,0,0,0,0,0,0,0,0,0,0,0,0,0,0,0,0,0,0,0,0,0,0,0,0,0],"sum_hessian":[1.5284E4,1.1265E4,4.019E3,5E3,6.265E3,1.227E3,2.792E3,1.002E3,3.998E3,4.701E3,1.564E3,8.84E2,3.43E2,1.412E3,1.38E3,5.58E2,4.44E2,9.91E2,3.007E3,3.107E3,1.594E3,9.25E2,6.39E2,7.28E2,1.56E2,2.8E2,6.3E1,9.8E2,4.32E2,1.02E3,3.6E2,1.47E2,4.11E2,2.14E2,2.3E2,1.06E2,8.85E2,1.91E3,1.097E3,6.7E2,2.437E3,8.64E2,7.3E2,8.5E1,8.4E2,4.81E2,1.58E2,1.92E2,5.36E2,7.5E1,8.1E1,8.8E1,1.92E2,3.81E2,5.99E2,3.12E2,1.2E2,1.95E2,8.25E2,1.9E1,3.41E2,7.6E1,3.35E2,1.73E2,4.1E1,6.05E2,2.8E2,7.74E2,1.136E3,7.65E2,3.32E2,2.89E2,3.81E2,1.48E3,9.57E2,5.6E1,8.08E2,7.19E2,1.1E1,4E1,4.5E1,5.93E2,2.47E2,1.12E2,3.69E2,1.62E2,3E1,3.89E2,1.47E2,6.1E1,1.4E1,6.3E1,2.5E1,1.42E2,5E1,1.74E2,2.07E2,1.91E2,4.08E2,1.9E1,1.76E2,4.23E2,4.02E2,9E0,1E1,1.89E2,1.52E2,2.55E2,8E1,3.4E2,2.65E2,8E0,2.72E2,7.61E2,1.3E1,7.82E2,3.54E2,5.07E2,2.58E2,3.21E2,1.1E1,6E1,2.29E2,3.42E2,3.9E1,1.71E2,1.309E3,4.99E2,4.58E2,2.5E1,3.1E1,1.34E2,6.74E2,6.8E1,6.51E2,2.1E1,1.9E1,2.9E1,1.6E1,1.94E2,3.99E2,2.37E2,1E1,1.5E1,9.7E1,3.3E1,1.29E2,5.1E1,3.38E2,9.3E1,5.4E1,1.8E1,4.3E1,1.5E1,4.8E1,1.7E1,8E0,1.34E2,8E0,1.1E1,1.63E2,1.96E2,1.1E1,1.81E2,1E1,9E0,1E1,1.56E2,2E1,4.08E2,1.5E1,2.4E1,5.6E1,4.56E2,3.05E2,3.46E2,8E0,4.77E2,3E1,1.02E2,1.56E2,2.18E2,1.03E2,1.51E2,7.8E1,1.62E2,1.8E2,1.9E1,2E1,1.58E2,1.3E1,8.81E2,4.28E2,2.59E2,2.4E2,2.18E2,2.4E2,1.7E1,8E0,2.1E1,1E1,6.2E1,7.2E1,5.07E2,1.67E2,5.9E1,9E0,8.5E1,5.66E2,8E0,1.3E1,1E1,9E0,8E0,8E0,1.21E2,7.3E1,3.08E2,9.1E1,1.1E2,1.27E2,9.4E1,3.5E1,1.04E2,2.34E2,8.2E1,1.1E1,3.1E1,2.3E1,9E0,9E0,1E1,3.3E1,8E0,9E0,5E1,8.4E1,1.4E1,1.49E2,2.2E1,1.74E2,1.3E2,5.1E1,4.2E1,1.14E2,9E0,1.1E1,3.98E2,1E1,1.39E2,3.17E2,2.55E2,9.1E1,2.96E2,1.81E2,2.1E1,9E0,5.7E1,4.5E1,1.23E2,3.3E1,9E1,1.28E2,1.3E1,9E1,1.32E2,1.9E1,1E2,5.8E1,7.18E2,1.63E2,4.2E1,3.86E2,3E1,2.29E2,9.6E1,1.44E2,1.85E2,3.3E1,3.5E1,2.05E2,6.3E1,9E0,4.51E2,5.6E1,7.9E1,8.8E1,2.8E1,5.7E1,4.35E2,1.31E2,1.06E2,1.5E1,9E0,6.4E1,2.5E1,2.83E2,6.7E1,2.4E1,9.7E1,1.3E1,3.7E1,5.7E1,1.7E1,1.8E1,6.7E1,3.7E1,7.8E1,1.56E2,5.7E1,2.5E1,1E1,2.1E1,1.2E1,2.1E1,1.4E1,3.6E1,4.2E1,4.2E1,3E1,1.19E2,1.64E2,1E1,1.3E1,1.17E2,4.1E1,1E1,2.51E2,1.47E2,8.3E1,5.6E1,1.93E2,6.2E1,5.7E1,3.4E1,2.17E2,7.9E1,1.59E2,2.2E1,4E1,1.7E1,7.4E1,4.9E1,2.5E1,8E0,5.9E1,3.1E1,3.3E1,9.5E1,6.2E1,2.8E1,1E1,9E0,3.5E1,6.5E1,4.8E1,1E1,1.4E1,7.04E2,1.03E2,6E1,8E0,3.4E1,2.82E2,1.04E2,5.1E1,1.78E2,2.7E1,6.9E1,3.5E1,1.09E2,3.5E1,1.5E2,2.5E1,8E0,1.5E1,2E1,8E0,1.97E2,2.31E2,2.2E2,6.6E1,1.3E1,1.2E1,1.6E1,1.5E1,4.2E1,2.2E1,1.09E2,7.9E1,2.7E1,5.5E1,9E0,1.2E1,1.3E1,2.71E2,1.2E1,4.2E1,2.5E1,1.5E1,2.2E1,4.2E1,1.5E1,4.9E1,1.8E1,1.2E1,2.5E1,6E1,1.8E1,6.2E1,9.4E1,4.9E1,8E0,9E0,1.2E1,8E0,1.3E1,1.3E1,2.3E1,3E1,1.2E1,1.9E1,1E2,1.3E1,2.8E1,1.91E2,6E1],"tree_param":{"num_deleted":"0","num_feature":"10","num_nodes":"427","size_leaf_vector":"1"}},{"base_weights":[1.373078E-3,-1.9584502E-1,7.407269E-1,-4.186662E-1,2.1763874E-2,5.0326777E-1,1.0726843E0,-5.732513E-1,-1.508117E-1,-6.489261E-2,2.691021E-1,3.1821078E-1,6.1767894E-1,8.350164E-1,1.3802825E0,-8.4006286E-1,-4.4972292E-1,-3.193361E-1,-8.285633E-2,-1.4898428E-1,8.7775856E-2,1.5856291E-1,4.2762402E-1,2.0756945E-1,5.9771806E-1,4.248527E-1,7.7842206E-1,6.5460217E-1,1.0523708E0,8.7100565E-2,1.22132614E-1,-7.440559E-2,-7.393323E-1,-2.61837E-1,-6.033974E-1,-4.724388E-2,-2.6481572E-1,-3.5342794E-2,-3.769186E-1,-2.6288307E-1,-2.2909215E-2,2.9118478E-1,-7.250565E-2,-2.4450038E-2,2.518054E-1,5.67378E-1,2.0353141E-1,2.8706738E-1,-2.6308113E-1,6.6755646E-1,3.2591408E-1,-3.5616048E-2,4.443484E-1,7.121898E-1,7.116339E-2,-1.7269628E-2,6.8525296E-1,6.7944184E-2,9.588149E-2,-6.641547E-2,-6.305178E-1,-3.1870195E-1,3.2626727E-1,-5.5953234E-1,-9.393909E-2,-6.635676E-2,-3.0030778E-1,-1.262292E-1,1.4354907E-1,-2.0821787E-1,-5.3365487E-1,-1.9946508E-1,-4.836606E-1,6.1792716E-2,-2.1774648E-1,1.543607E-1,4.9572346E-1,-3.9929473E-1,1.0796157E-1,6.191962E-3,-3.160403E-2,3.2683587E-1,1.12489715E-1,3.847251E-1,6.032813E-2,-1.225986E-1,4.4439253E-1,4.7210705E-1,1.8150477E-1,-7.336462E-1,2.1009974E-1,9.692861E-3,4.8821095E-2,-0E0,3.767608E-1,1.3346393E-2,-2.9593999E-2,4.0717643E-1,7.093028E-1,6.556098E-1,9.5344853E-1,9.029434E-1,5.39398E-1,-4.0961286E-1,-5.3684074E-2,-1.889201E-1,-4.8465112E-1,7.894349E-2,2.6839292E-2,-5.8113253E-1,-1.1017567E-1,-2.0878458E-1,3.3292526E-3,-3.8324627E-1,-1.6756798E-1,5.423881E-3,-5.027005E-1,-4.016352E-2,2.6351652E-1,-2.759226E-1,-4.04085E-2,-1.3013188E-2,-6.3704747E-1,-2.6109692E-1,2.295145E-2,-3.7841573E-2,-2.9340214E-1,-4.566777E-2,1.1464256E-1,-1.285799E-1,-4.151251E-1,2.869848E-1,5.881477E-2,2.6090043E-2,4.0955495E-2,-5.2066624E-1,-1.1485967E-1,3.0835992E-1,-1.2617773E-1,-5.4606173E-2,2.2569197E-1,2.8628695E-1,5.2414E-2,1.8790195E-2,2.796486E-2,1.537028E-1,4.6279013E-1,-2.5160047E-1,1.7777836E-2,4.8001084E-1,-0E0,3.7792316E-1,5.2956194E-2,5.8461856E-2,3.0914223E-1,2.9628515E-2,-8.133614E-2,4.3901905E-2,-0E0,2.1651387E-4,4.2816794E-1,3.595098E-2,3.4421203E-1,3.4252948E-1,5.933271E-2,7.053339E-1,1.5715641E-1,7.278039E-2,2.6182417E-2,3.914359E-2,7.218783E-2,-0E0,5.5980814E-1,-5.549837E-1,-0E0,-2.2777224E-1,-4.3740794E-3,-5.5489427E-1,-1.7204462E-1,7.4809194E-3,-0E0,-9.6159965E-1,-5.4730225E-1,-0E0,-2.3497222E-2,-0E0,-2.722716E-1,-3.0764452E-1,-4.6814132E-2,-8.8441275E-2,-2.8078366E-2,-8.877653E-2,1.6523059E-1,-5.731471E-1,-2.6023346E-1,1.19228125E-1,-1.166714E-1,4.184143E-1,1.3710936E-2,-2.397091E-2,-3.9411142E-2,-7.2349524E-3,-0E0,-4.847612E-2,-3.8889467E-3,-2.8362924E-1,1.4098218E-1,-1.0638871E-1,1.02682866E-1,-1.24769986E-1,-3.956602E-2,-7.72021E-2,1.4496633E-1,1.78146E-1,1.621909E-2,-1.865363E-1,1.4444706E-1,-3.239135E-2,-7.861767E-3,6.6724755E-2,3.1912035E-1,-7.796269E-2,1.405761E-1,-4.0969223E-1,-6.9095707E-1,-2.0967779E-1,-1.2381787E-2,5.7276677E-2,3.7071875E-1,-2.8113925E-1,1.1828699E-2,-0E0,-2.7172858E-1,-0E0,2.2348357E-2,3.6305138E-1,1.0633858E-1,-1.5791686E-2,9.6998036E-2,-0E0,1.1966661E-2,1.7852873E-1,3.552795E-2,-3.702983E-2,-8.3507314E-2,4.386435E-2,2.529576E-2,1.1542186E-1,2.954192E-2,-2.2021936E-1,1.2583232E-1,4.131762E-1,-0E0,1.6788127E-2,-1.4667247E-2,1.3648283E-3,3.571119E-2,-2.249836E-2,3.9385045E-1,3.262147E-2,-0E0,6.354133E-1,6.561845E-2,-1.1408096E-2,2.754366E-1,5.8912665E-1,1.5378632E-1,-4.501013E-2,-2.832326E-1,3.641025E-2,-9.816072E-3,-3.0615142E-1,-1.2144059E-1,-1.6417526E-2,2.495911E-2,-6.0712624E-1,-2.3146182E-2,-2.0539857E-2,-4.2975124E-2,-4.7839358E-1,-1.063614E-1,-4.9818948E-1,-7.3460615E-1,-1.1460381E-1,9.6744755E-3,-2.354775E-2,-0E0,-3.248782E-1,2.882948E-4,-1.6259438E-1,9.151741E-2,-1.9948651E-1,-3.1019535E-2,1.5306844E-2,2.4764472E-1,-7.6061344E-1,-4.375293E-1,-3.214704E-1,-0E0,-0E0,1.5695858E-1,-2.1805388E-1,1.4600243E-2,-0E0,4.6066785E-1,-2.8288111E-2,2.0729245E-1,-5.6968485E-3,-0E0,-3.0325785E-1,-0E0,-0E0,2.7218495E-2,-1.2611948E-2,-1.7547332E-2,7.6333426E-2,1.9079413E-2,-2.1167693E-1,3.2522697E-3,-9.1743545E-4,-1.8848106E-1,3.0769575E-1,-1.4816432E-2,-1.44376E-2,1.9725032E-1,-3.6195166E-2,3.9012316E-1,-2.2274475E-1,-4.494663E-3,2.0479572E-1,-0E0,8.700055E-3,-0E0,1.7070654E-1,3.837819E-1,-1.6043822E-1,2.9478492E-2,6.1804004E-2,1.6650094E-2,-5.1265385E-2,-2.8678617E-1,-5.4778043E-2,-4.6473424E-4,-0E0,-1.865256E-2,5.0174054E-3,-9.926244E-3,1.3523877E-1,-5.8428466E-2,4.706299E-1,2.1938664E-1,-1.2977055E-1,-3.7787798E-1,-7.393349E-2,2.0974676E-1,-1.2553003E-1,1.2075495E-1,-3.553547E-1,-0E0,1.2992372E-2,-1.608312E-2,-8.031199E-4,3.8176155E-1,-0E0,2.1916393E-2,9.889715E-3,2.4079597E-1,3.9895087E-2,2.0753795E-2,-0E0,-1.4543211E-2,1.3351357E-2,-0E0,-2.9638287E-2,-2.4416767E-2,1.6438559E-1,-1.713579E-2,1.2498526E-1,4.4987482E-1,-3.482199E-3,5.96186E-3,2.804288E-1,4.8853257E-1,6.0373534E-2,4.581906E-1,2.7026461E-2,3.839827E-3,4.6884406E-1,7.9934365E-1,-0E0,1.8732162E-2,-2.3199316E-2,-5.3660467E-4,-0E0,3.7401633E-3,-2.5320021E-2,-9.409937E-3,-1.0379126E-2,-0E0,-3.5564427E-3,5.3111194E-3,-4.4753253E-2,-2.356607E-2,-0E0,-1.43414335E-2,-3.8226955E-2,-3.6309941E-3,-3.6415283E-2,-0E0,-5.341403E-2,-1.7803403E-2,-0E0,-1.3760141E-2,-2.8220493E-2,-1.2384813E-2,1.4732978E-3,-1.5794475E-2,1.2522335E-2,-4.098915E-4,-0E0,-1.6093802E-2,-1.7107397E-2,-0E0,7.3452853E-3,-9.983868E-3,1.8956985E-2,-0E0,-6.1285462E-2,-2.6464477E-2,-3.3299383E-2,-6.808907E-3,-0E0,-2.62164E-2,1.4529733E-2,-0E0,-2.080771E-2,-0E0,1.1931368E-2,-1.6353461E-3,1.3585838E-2,3.5488654E-2,3.540926E-3,2.0285096E-2,1.5120914E-2,-2.2317719E-2,3.8117408E-3,-9.109416E-3,-3.2749504E-3,4.436048E-3,-6.8022637E-3,1.7451458E-2,8.586342E-3,-8.635709E-3,-2.1825865E-2,-5.30344E-4,-4.363567E-3,1.7298562E-2,-2.758295E-2,-0E0,2.7820359E-3,3.0128153E-2,1.8611835E-2,6.4518745E-3,-8.067536E-3,4.0578227E-3,-0E0,4.4915963E-2,-1.687107E-2,-0E0,4.865262E-3,-6.9083427E-3,-0E0,2.0752354E-2,-0E0,1.440322E-2,3.2413077E-2,1.4545892E-2,-1.9146102E-2,-1.1271129E-3,4.354503E-3,-0E0,8.351343E-3,-6.910511E-3,-2.5622826E-2,-0E0,1.1348369E-2,-0E0,-0E0,-7.855227E-3,9.414788E-3,3.5894908E-2,-1.3555204E-2,2.437775E-2,-1.5488784E-2,1.2525459E-2,-4.0406818E-3,-3.0995233E-2,7.0439284E-3,-2.925267E-2,3.789034E-2,-6.648053E-3,3.692226E-3,-2.9451735E-2,1.5675614E-2,1.7881771E-3,-1.6126268E-3,-3.8118996E-2,1.3645939E-2,3.0558567E-2,-3.4933062E-3,1.31703E-2,1.2203119E-2,-2.0035818E-2,2.2763755E-2,-0E0,1.0643956E-2,-2.0081911E-4,-6.0570883E-3,1.2698037E-2,4.872047E-3,-1.66995E-2,1.5470763E-2,-6.0289504E-4,-0E0,1.8763887E-2,4.909741E-2,2.3358902E-2,2.2605453E-2,-8.323294E-3,4.6056665E-2,2.1808846E-2,4.5676315E-3,3.6224514E-2,1.22467205E-2,3.9895885E-2,2.3459924E-2,7.05796E-2],"categories":[],"categories_nodes":[],"categories_segments":[],"categories_sizes":[],"default_left":[0,0,0,0,0,0,0,0,0,0,0,0,0,0,0,0,0,0,0,0,0,0,0,0,0,0,0,0,0,0,0,0,0,0,0,0,0,0,0,0,0,0,0,0,0,0,0,0,0,0,0,0,0,0,0,0,0,0,0,0,0,0,0,0,0,0,0,0,0,0,0,0,0,0,0,0,0,0,0,0,0,0,0,0,0,0,0,0,0,0,0,0,0,0,0,0,0,0,0,0,0,0,0,0,0,0,0,0,0,0,0,0,0,0,0,0,0,0,0,0,0,0,0,0,0,0,0,0,0,0,0,0,0,0,0,0,0,0,0,0,0,0,0,0,0,0,0,0,0,0,0,0,0,0,0,0,0,0,0,0,0,0,0,0,0,0,0,0,0,0,0,0,0,0,0,0,0,0,0,0,0,0,0,0,0,0,0,0,0,0,0,0,0,0,0,0,0,0,0,0,0,0,0,0,0,0,0,0,0,0,0,0,0,0,0,0,0,0,0,0,0,0,0,0,0,0,0,0,0,0,0,0,0,0,0,0,0,0,0,0,0,0,0,0,0,0,0,0,0,0,0,0,0,0,0,0,0,0,0,0,0,0,0,0,0,0,0,0,0,0,0,0,0,0,0,0,0,0,0,0,0,0,0,0,0,0,0,0,0,0,0,0,0,0,0,0,0,0,0,0,0,0,0,0,0,0,0,0,0,0,0,0,0,0,0,0,0,0,0,0,0,0,0,0,0,0,0,0,0,0,0,0,0,0,0,0,0,0,0,0,0,0,0,0,0,0,0,0,0,0,0,0,0,0,0,0,0,0,0,0,0,0,0,0,0,0,0,0,0,0,0,0,0,0,0,0,0,0,0,0,0,0,0,0,0,0,0,0,0,0,0,0,0,0,0,0,0,0,0,0,0,0,0,0,0,0,0,0,0,0,0,0,0,0,0,0,0,0,0,0,0,0,0,0,0,0,0,0,0,0,0,0,0,0,0,0,0,0,0,0,0,0,0,0,0,0,0,0,0,0,0,0,0,0,0,0,0,0,0,0,0,0,0,0,0,0,0,0,0,0,0,0,0,0,0,0,0,0,0,0,0,0,0,0,0,0,0,0,0,0,0,0,0,0,0,0,0,0,0,0,0,0,0,0,0,0,0,0,0,0,0,0,0,0,0,0,0,0,0,0,0,0,0,0,0,0,0,0,0,0,0,0,0,0,0,0,0],"id":2,"left_children":[1,3,5,7,9,11,13,15,17,19,21,23,25,27,29,31,33,35,37,39,41,43,45,47,49,51,53,55,57,-1,-1,-1,59,61,63,-1,65,67,69,71,73,75,77,79,81,83,85,87,89,91,93,95,97,99,-1,-1,101,-1,-1,-1,103,105,107,109,-1,111,113,115,117,119,121,123,125,127,129,131,133,135,137,139,-1,141,143,145,-1,147,149,151,153,155,157,-1,-1,-1,159,-1,-1,161,163,165,167,169,171,173,-1,175,177,179,-1,181,183,185,-1,187,189,191,193,195,197,199,201,-1,203,205,207,-1,209,211,213,215,217,219,221,-1,-1,223,225,227,229,231,233,235,-1,237,-1,239,241,243,-1,245,-1,247,-1,249,251,-1,-1,-1,253,-1,255,-1,257,259,-1,261,263,-1,-1,-1,-1,-1,265,267,269,271,273,275,277,-1,-1,279,281,283,-1,-1,285,287,-1,289,-1,291,293,295,297,299,301,303,305,-1,307,-1,-1,-1,-1,309,311,313,315,317,-1,319,321,323,325,327,329,-1,-1,331,333,335,337,339,341,343,345,347,349,351,353,355,357,359,-1,361,363,-1,365,-1,-1,367,-1,-1,369,-1,-1,371,-1,373,375,377,379,-1,-1,-1,-1,-1,381,-1,-1,383,-1,-1,385,387,389,-1,391,393,-1,395,397,-1,399,401,-1,-1,403,405,-1,407,409,411,-1,-1,-1,413,-1,415,417,419,421,423,425,427,429,431,-1,-1,433,435,437,-1,439,-1,441,-1,-1,443,445,447,-1,449,-1,451,-1,453,-1,455,457,459,-1,-1,461,463,465,467,469,471,-1,-1,-1,473,475,477,479,481,-1,-1,483,-1,-1,-1,-1,-1,-1,485,487,489,491,493,495,497,499,501,503,505,-1,-1,-1,-1,507,509,-1,511,513,515,-1,517,-1,-1,-1,-1,519,521,-1,523,525,-1,-1,527,529,-1,531,-1,-1,533,535,-1,-1,-1,-1,-1,-1,-1,-1,-1,-1,-1,-1,-1,-1,-1,-1,-1,-1,-1,-1,-1,-1,-1,-1,-1,-1,-1,-1,-1,-1,-1,-1,-1,-1,-1,-1,-1,-1,-1,-1,-1,-1,-1,-1,-1,-1,-1,-1,-1,-1,-1,-1,-1,-1,-1,-1,-1,-1,-1,-1,-1,-1,-1,-1,-1,-1,-1,-1,-1,-1,-1,-1,-1,-1,-1,-1,-1,-1,-1,-1,-1,-1,-1,-1,-1,-1,-1,-1,-1,-1,-1,-1,-1,-1,-1,-1,-1,-1,-1,-1,-1,-1,-1,-1,-1,-1,-1,-1,-1,-1,-1,-1,-1,-1,-1,-1,-1,-1,-1,-1,-1,-1,-1,-1,-1,-1,-1,-1,-1,-1,-1,-1,-1,-1,-1,-1,-1,-1,-1,-1,-1,-1,-1,-1,-1,-1,-1,-1],"loss_changes":[2.2268733E3,5.848524E2,2.49854E2,2.455044E2,1.3099051E2,3.8095123E1,9.125391E1,1.2156506E2,2.4472332E1,5.807145E1,2.6860962E1,2.1198753E1,3.3299835E1,2.5656311E1,1.937268E1,2.0418518E1,7.319287E1,1.0077698E1,2.1365356E1,4.1522858E1,5.2507126E1,1.6410257E1,1.889328E1,2.015042E1,1.9228134E0,5.363655E0,4.914917E0,1.289801E1,2.490631E0,0E0,0E0,0E0,1.3779419E1,3.9596878E1,4.023651E1,0E0,3.3358116E0,2.210465E1,4.400158E0,2.0237717E1,2.322651E1,1.8807953E1,5.323232E1,4.6433835E0,5.932949E0,1.7779732E1,2.0696869E1,7.8762436E0,1.8112865E1,4.4302368E-1,5.531163E-1,2.437124E0,2.7973785E0,2.8011475E0,0E0,0E0,9.911728E0,0E0,0E0,0E0,1.2769272E1,2.2018074E1,6.8562126E-1,1.1996918E1,0E0,1.7180983E0,4.154091E0,4.5531757E1,1.0317872E1,8.532615E-1,2.428526E0,1.6707829E1,1.6876831E0,5.60564E0,6.6832333E0,5.0134363E0,1.0864639E0,1.0121098E1,2.7385899E1,4.201921E0,0E0,4.7969933E0,5.5854673E0,3.4766426E0,0E0,5.4684415E0,2.8729858E0,1.867073E0,4.2240257E0,2.1641542E1,3.3495674E0,0E0,0E0,0E0,2.8123665E-1,0E0,0E0,1.3308182E0,2.2644424E-1,8.930435E0,6.491394E-1,2.7263794E0,3.3537598E0,1.2259571E1,0E0,4.1033745E0,9.02018E0,2.8621703E-2,0E0,1.2921173E1,1.7270181E0,3.7429023E-1,0E0,3.8918114E0,2.6835694E0,1.0260511E1,2.5528831E0,2.2154763E0,1.0259283E1,5.9129E-1,2.2705469E-1,0E0,1.0941582E0,8.830841E0,2.6939178E0,0E0,2.6159534E0,1.8426282E0,3.8677168E0,4.936901E0,7.6861954E-1,7.008114E-1,3.0333009E0,0E0,0E0,1.9219513E0,7.238859E-1,4.3293304E0,6.0115304E0,2.8751638E0,1.5701132E0,4.4720745E0,0E0,3.322827E0,0E0,9.2137575E-2,8.479004E-1,3.0021877E0,0E0,5.0974655E-1,0E0,5.1779175E-1,0E0,3.020587E0,4.5428143E0,0E0,0E0,0E0,1.5939313E0,0E0,3.9178038E-1,0E0,1.0458431E1,4.0857744E-1,0E0,1.9968567E0,1.9478822E0,0E0,0E0,0E0,0E0,0E0,1.8150787E0,1.6383629E0,3.3585796E-1,3.527172E0,1.0392926E0,2.6923065E0,9.716654E-1,0E0,0E0,2.06073E1,8.214508E0,8.095622E-1,0E0,0E0,2.8693843E-1,1.6001644E0,0E0,2.0996804E0,0E0,2.3859346E0,2.8206816E0,1.9672279E0,1.1158605E0,2.6955944E-1,1.9518182E0,3.102995E0,9.085637E0,0E0,6.2400337E-2,0E0,0E0,0E0,0E0,5.2548523E0,1.4172804E0,9.20748E-1,2.4598789E-1,1.0826182E0,0E0,2.121869E0,2.6469383E0,2.9839325E0,5.753893E0,1.4019823E0,6.185472E-1,0E0,0E0,1.20786875E-1,5.245762E-1,1.0101078E0,8.5693073E-1,3.7361279E0,3.4293709E0,6.42164E-1,7.4594647E-1,7.528546E-1,2.5622826E0,1.1145153E0,2.579261E0,2.854423E0,8.8800764E-1,1.0418955E0,0E0,2.2607155E0,2.4784584E0,0E0,1.4681993E0,0E0,0E0,3.5679102E-2,0E0,0E0,3.972994E-1,0E0,0E0,2.0477104E-1,0E0,5.6082773E-1,1.9653733E0,2.4039459E-1,1.783157E-1,0E0,0E0,0E0,0E0,0E0,1.6817207E0,0E0,0E0,8.664207E0,0E0,0E0,2.5146747E-1,3.1120682E0,4.9169177E-1,0E0,1.2207389E-1,3.5553902E-2,0E0,1.7261448E0,5.6012106E-1,0E0,4.1899258E-1,1.403656E-1,0E0,0E0,3.6202157E-1,6.8366337E-1,0E0,7.004257E0,3.3605957E-1,3.3001974E-1,0E0,0E0,0E0,1.4576397E0,0E0,1.4807293E0,5.4540646E-1,6.779604E-1,1.6610222E0,1.3715149E0,9.159641E-1,1.17996216E-1,4.277935E-1,5.2035284E-1,0E0,0E0,1.4674914E-1,1.6082201E0,4.9829456E-1,0E0,5.1078415E-1,0E0,5.530255E-1,0E0,0E0,5.423317E0,3.5837346E-1,1.2576266E-1,0E0,1.3016425E0,0E0,1.4267578E0,0E0,4.5833123E-1,0E0,2.4161813E0,3.8384986E0,3.6468506E-1,0E0,0E0,2.1186495E0,1.8048029E0,3.4201446E0,9.559822E-1,4.054447E-1,4.7712255E-1,0E0,0E0,0E0,2.7165186E-1,1.2664509E-1,5.927646E-1,4.0293813E-2,9.9301064E-1,0E0,0E0,2.4861403E0,0E0,0E0,0E0,0E0,0E0,0E0,2.8966725E-2,6.765191E-2,7.1692276E-1,5.991496E0,1.8161612E0,6.963787E-1,6.109995E0,5.360524E0,5.16394E0,6.240907E-1,1.4166088E0,0E0,0E0,0E0,0E0,1.2855988E0,8.6257637E-1,0E0,4.6421857E0,9.4303894E-1,2.8596377E-1,0E0,6.1837447E-1,0E0,0E0,0E0,0E0,6.7409366E-1,1.4580741E0,0E0,5.420163E-1,6.203861E-1,0E0,0E0,2.5668821E0,2.4225311E0,0E0,2.8504486E0,0E0,0E0,3.2274094E0,4.3365593E0,0E0,0E0,0E0,0E0,0E0,0E0,0E0,0E0,0E0,0E0,0E0,0E0,0E0,0E0,0E0,0E0,0E0,0E0,0E0,0E0,0E0,0E0,0E0,0E0,0E0,0E0,0E0,0E0,0E0,0E0,0E0,0E0,0E0,0E0,0E0,0E0,0E0,0E0,0E0,0E0,0E0,0E0,0E0,0E0,0E0,0E0,0E0,0E0,0E0,0E0,0E0,0E0,0E0,0E0,0E0,0E0,0E0,0E0,0E0,0E0,0E0,0E0,0E0,0E0,0E0,0E0,0E0,0E0,0E0,0E0,0E0,0E0,0E0,0E0,0E0,0E0,0E0,0E0,0E0,0E0,0E0,0E0,0E0,0E0,0E0,0E0,0E0,0E0,0E0,0E0,0E0,0E0,0E0,0E0,0E0,0E0,0E0,0E0,0E0,0E0,0E0,0E0,0E0,0E0,0E0,0E0,0E0,0E0,0E0,0E0,0E0,0E0,0E0,0E0,0E0,0E0,0E0,0E0,0E0,0E0,0E0,0E0,0E0,0E0,0E0,0E0,0E0,0E0,0E0,0E0,0E0,0E0,0E0,0E0,0E0,0E0,0E0,0E0,0E0,0E0,0E0,0E0,0E0,0E0,0E0,0E0,0E0,0E0],"parents":[2147483647,0,0,1,1,2,2,3,3,4,4,5,5,6,6,7,7,8,8,9,9,10,10,11,11,12,12,13,13,14,14,15,15,16,16,17,17,18,18,19,19,20,20,21,21,22,22,23,23,24,24,25,25,26,26,27,27,28,28,32,32,33,33,34,34,36,36,37,37,38,38,39,39,40,40,41,41,42,42,43,43,44,44,45,45,46,46,47,47,48,48,49,49,50,50,51,51,52,52,53,53,56,56,60,60,61,61,62,62,63,63,65,65,66,66,67,67,68,68,69,69,70,70,71,71,72,72,73,73,74,74,75,75,76,76,77,77,78,78,79,79,81,81,82,82,83,83,85,85,86,86,87,87,88,88,89,89,90,90,94,94,97,97,98,98,99,99,100,100,101,101,102,102,103,103,105,105,106,106,107,107,109,109,110,110,111,111,113,113,114,114,115,115,116,116,117,117,118,118,119,119,120,120,122,122,123,123,124,124,126,126,127,127,128,128,129,129,130,130,131,131,132,132,135,135,136,136,137,137,138,138,139,139,140,140,141,141,143,143,145,145,146,146,147,147,149,149,151,151,153,153,154,154,158,158,160,160,162,162,163,163,165,165,166,166,172,172,173,173,174,174,175,175,176,176,177,177,178,178,181,181,182,182,183,183,186,186,187,187,189,189,191,191,192,192,193,193,194,194,195,195,196,196,197,197,198,198,200,200,205,205,206,206,207,207,208,208,209,209,211,211,212,212,213,213,214,214,215,215,216,216,219,219,220,220,221,221,222,222,223,223,224,224,225,225,226,226,227,227,228,228,229,229,230,230,231,231,232,232,233,233,235,235,236,236,238,238,241,241,244,244,247,247,249,249,250,250,251,251,252,252,258,258,261,261,264,264,265,265,266,266,268,268,269,269,271,271,272,272,274,274,275,275,278,278,279,279,281,281,282,282,283,283,287,287,289,289,290,290,291,291,292,292,293,293,294,294,295,295,296,296,297,297,300,300,301,301,302,302,304,304,306,306,309,309,310,310,311,311,313,313,315,315,317,317,319,319,320,320,321,321,324,324,325,325,326,326,327,327,328,328,329,329,333,333,334,334,335,335,336,336,337,337,340,340,347,347,348,348,349,349,350,350,351,351,352,352,353,353,354,354,355,355,356,356,357,357,362,362,363,363,365,365,366,366,367,367,369,369,374,374,375,375,377,377,378,378,381,381,382,382,384,384,387,387,388,388],"right_children":[2,4,6,8,10,12,14,16,18,20,22,24,26,28,30,32,34,36,38,40,42,44,46,48,50,52,54,56,58,-1,-1,-1,60,62,64,-1,66,68,70,72,74,76,78,80,82,84,86,88,90,92,94,96,98,100,-1,-1,102,-1,-1,-1,104,106,108,110,-1,112,114,116,118,120,122,124,126,128,130,132,134,136,138,140,-1,142,144,146,-1,148,150,152,154,156,158,-1,-1,-1,160,-1,-1,162,164,166,168,170,172,174,-1,176,178,180,-1,182,184,186,-1,188,190,192,194,196,198,200,202,-1,204,206,208,-1,210,212,214,216,218,220,222,-1,-1,224,226,228,230,232,234,236,-1,238,-1,240,242,244,-1,246,-1,248,-1,250,252,-1,-1,-1,254,-1,256,-1,258,260,-1,262,264,-1,-1,-1,-1,-1,266,268,270,272,274,276,278,-1,-1,280,282,284,-1,-1,286,288,-1,290,-1,292,294,296,298,300,302,304,306,-1,308,-1,-1,-1,-1,310,312,314,316,318,-1,320,322,324,326,328,330,-1,-1,332,334,336,338,340,342,344,346,348,350,352,354,356,358,360,-1,362,364,-1,366,-1,-1,368,-1,-1,370,-1,-1,372,-1,374,376,378,380,-1,-1,-1,-1,-1,382,-1,-1,384,-1,-1,386,388,390,-1,392,394,-1,396,398,-1,400,402,-1,-1,404,406,-1,408,410,412,-1,-1,-1,414,-1,416,418,420,422,424,426,428,430,432,-1,-1,434,436,438,-1,440,-1,442,-1,-1,444,446,448,-1,450,-1,452,-1,454,-1,456,458,460,-1,-1,462,464,466,468,470,472,-1,-1,-1,474,476,478,480,482,-1,-1,484,-1,-1,-1,-1,-1,-1,486,488,490,492,494,496,498,500,502,504,506,-1,-1,-1,-1,508,510,-1,512,514,516,-1,518,-1,-1,-1,-1,520,522,-1,524,526,-1,-1,528,530,-1,532,-1,-1,534,536,-1,-1,-1,-1,-1,-1,-1,-1,-1,-1,-1,-1,-1,-1,-1,-1,-1,-1,-1,-1,-1,-1,-1,-1,-1,-1,-1,-1,-1,-1,-1,-1,-1,-1,-1,-1,-1,-1,-1,-1,-1,-1,-1,-1,-1,-1,-1,-1,-1,-1,-1,-1,-1,-1,-1,-1,-1,-1,-1,-1,-1,-1,-1,-1,-1,-1,-1,-1,-1,-1,-1,-1,-1,-1,-1,-1,-1,-1,-1,-1,-1,-1,-1,-1,-1,-1,-1,-1,-1,-1,-1,-1,-1,-1,-1,-1,-1,-1,-1,-1,-1,-1,-1,-1,-1,-1,-1,-1,-1,-1,-1,-1,-1,-1,-1,-1,-1,-1,-1,-1,-1,-1,-1,-1,-1,-1,-1,-1,-1,-1,-1,-1,-1,-1,-1,-1,-1,-1,-1,-1,-1,-1,-1,-1,-1,-1,-1,-1],"split_conditions":[2.55E2,3E0,5E0,6.8E1,4E0,4E0,4.5E2,2E0,9.7E1,6.8E1,6.7E1,6.6E1,3.11E2,6.6E1,7.8E2,6.7E1,1.5E1,6.5E1,8.5E1,1.8E2,7.2E1,4.3333332E1,7.2E1,1.0625E2,8.2E1,4.725E1,4.66E2,3E0,1E0,8.7100565E-2,1.22132614E-1,-7.440559E-2,3.35E1,1.4E1,6.6E1,-4.724388E-2,7.1E1,8E1,3E0,5.2E1,2.7E1,1.65E2,8E1,6.4E1,1.9E1,2.01E2,7.8E1,6E0,8E0,2.6E2,8.3E1,6.9E1,1E0,8E1,7.116339E-2,-1.7269628E-2,6E0,6.7944184E-2,9.588149E-2,-6.641547E-2,2.2E1,6E0,2E0,5.542857E1,-9.393909E-2,7E1,7.8E1,7.2E1,1.17E2,4.675E1,8.7E1,1E0,1E0,4.725E1,6.4E1,7.1E1,1.86E2,4.8333332E1,8.4E1,1E0,-3.160403E-2,1.3E1,1E0,1.54E2,6.032813E-2,4.95E1,5E0,3.17E2,3E2,6E0,2.5E1,9.692861E-3,4.8821095E-2,-0E0,6.075E1,1.3346393E-2,-2.9593999E-2,6E0,5.5E1,7.6E1,8.95E1,3.07E2,2.68E2,1.4E1,-5.3684074E-2,1E0,1E0,8E1,2.6839292E-2,2.4E1,5.9E1,2E0,3.3292526E-3,7.2E1,8.4E1,3.825E1,1E0,1.03E2,8.2E1,1E0,8.9E1,-1.3013188E-2,9.4E1,4.6E1,1.49E2,-3.7841573E-2,6.1E1,1E0,6E0,5.9E1,5.542857E1,1.17E2,1.3E2,2.6090043E-2,4.0955495E-2,4.4E1,5.15E1,1.44E2,4.65E1,4.2333332E1,1.67E2,6E0,5.2414E-2,2.01E2,2.796486E-2,1.26E2,3.625E1,2.06E2,1.7777836E-2,8.2E1,-0E0,5.7142857E1,5.2956194E-2,8E0,6.4E1,2.9628515E-2,-8.133614E-2,4.3901905E-2,1.5E2,2.1651387E-4,2.82E2,3.595098E-2,8E0,8E0,5.933271E-2,6.6E1,3.25E2,7.278039E-2,2.6182417E-2,3.914359E-2,7.218783E-2,-0E0,6.4E1,1E0,1.5E1,4.3333332E1,3.675E1,4.175E1,1.17E2,7.4809194E-3,-0E0,2.2E1,6.4E1,5.5E1,-2.3497222E-2,-0E0,1E0,4.125E1,-4.6814132E-2,3.7666668E1,-2.8078366E-2,1.07E2,1.25E2,1.33E2,4.4166668E1,3.3E1,3.725E1,3.4E1,8.3E1,-2.397091E-2,1.3E2,-7.2349524E-3,-0E0,-4.847612E-2,-3.8889467E-3,5.3E1,1.53E2,1.5E1,3.7E1,1.61E2,-3.956602E-2,6E0,4.6E1,5E0,1E0,5.6E1,5.5E1,-3.239135E-2,-7.861767E-3,6.9E1,7E1,3.35E1,1E0,1.47E2,2.21E2,4.96E1,2.21E2,3.85E1,8.2E1,8.6E1,9E1,9E0,2.6E1,1.51E2,2.2348357E-2,4E0,2.35E2,-1.5791686E-2,5.8E1,-0E0,1.1966661E-2,5E0,3.552795E-2,-3.702983E-2,4.5333332E1,4.386435E-2,2.529576E-2,5.175E1,2.954192E-2,5.475E1,7.2E1,1.4E1,3.4E2,1.6788127E-2,-1.4667247E-2,1.3648283E-3,3.571119E-2,-2.249836E-2,6.6E1,3.262147E-2,-0E0,6E0,6.561845E-2,-1.1408096E-2,7.142857E1,3.5E1,3.74E2,-4.501013E-2,8.6E1,7E1,-9.816072E-3,1.6E2,1.8E2,-1.6417526E-2,1.27E2,1.48E2,-2.3146182E-2,-2.0539857E-2,9E0,2E1,-1.063614E-1,6.1E1,2.06E2,2.6E1,9.6744755E-3,-2.354775E-2,-0E0,1E0,2.882948E-4,6.7E1,8.1E1,1E2,2.925E1,4.0333332E1,5.85E1,4.05E1,1.96E2,7.6E1,-0E0,-0E0,3.375E1,8.3E1,1.13E2,-0E0,1.25E2,-2.8288111E-2,1E0,-5.6968485E-3,-0E0,1.07E2,5.8E1,1.31E2,2.7218495E-2,9E0,-1.7547332E-2,1.5E1,1.9079413E-2,5.8E1,3.2522697E-3,4.65E1,1E1,6E0,-1.4816432E-2,-1.44376E-2,5.475E1,1.4E1,5.25E1,2.44E2,2.31E2,1.92E2,-0E0,8.700055E-3,-0E0,3.425E1,1.5E2,1.13E2,1.19E2,4.075E1,1.6650094E-2,-5.1265385E-2,1E0,-5.4778043E-2,-4.6473424E-4,-0E0,-1.865256E-2,5.0174054E-3,-9.926244E-3,1E0,1.31E2,1.51E2,8.3E1,1E0,1.56E2,8.7E1,9.1E1,6E0,3.825E1,6E0,-0E0,1.2992372E-2,-1.608312E-2,-8.031199E-4,2.1E2,1E0,2.1916393E-2,5.2E1,6.4E1,7.1E1,2.0753795E-2,2.21E2,-1.4543211E-2,1.3351357E-2,-0E0,-2.9638287E-2,6.825E1,6.4E1,-1.713579E-2,7.5875E1,2.5E1,-3.482199E-3,5.96186E-3,3.07E2,7.2E1,6.0373534E-2,6.26E1,2.7026461E-2,3.839827E-3,5.475E1,3.25E2,-0E0,1.8732162E-2,-2.3199316E-2,-5.3660467E-4,-0E0,3.7401633E-3,-2.5320021E-2,-9.409937E-3,-1.0379126E-2,-0E0,-3.5564427E-3,5.3111194E-3,-4.4753253E-2,-2.356607E-2,-0E0,-1.43414335E-2,-3.8226955E-2,-3.6309941E-3,-3.6415283E-2,-0E0,-5.341403E-2,-1.7803403E-2,-0E0,-1.3760141E-2,-2.8220493E-2,-1.2384813E-2,1.4732978E-3,-1.5794475E-2,1.2522335E-2,-4.098915E-4,-0E0,-1.6093802E-2,-1.7107397E-2,-0E0,7.3452853E-3,-9.983868E-3,1.8956985E-2,-0E0,-6.1285462E-2,-2.6464477E-2,-3.3299383E-2,-6.808907E-3,-0E0,-2.62164E-2,1.4529733E-2,-0E0,-2.080771E-2,-0E0,1.1931368E-2,-1.6353461E-3,1.3585838E-2,3.5488654E-2,3.540926E-3,2.0285096E-2,1.5120914E-2,-2.2317719E-2,3.8117408E-3,-9.109416E-3,-3.2749504E-3,4.436048E-3,-6.8022637E-3,1.7451458E-2,8.586342E-3,-8.635709E-3,-2.1825865E-2,-5.30344E-4,-4.363567E-3,1.7298562E-2,-2.758295E-2,-0E0,2.7820359E-3,3.0128153E-2,1.8611835E-2,6.4518745E-3,-8.067536E-3,4.0578227E-3,-0E0,4.4915963E-2,-1.687107E-2,-0E0,4.865262E-3,-6.9083427E-3,-0E0,2.0752354E-2,-0E0,1.440322E-2,3.2413077E-2,1.4545892E-2,-1.9146102E-2,-1.1271129E-3,4.354503E-3,-0E0,8.351343E-3,-6.910511E-3,-2.5622826E-2,-0E0,1.1348369E-2,-0E0,-0E0,-7.855227E-3,9.414788E-3,3.5894908E-2,-1.3555204E-2,2.437775E-2,-1.5488784E-2,1.2525459E-2,-4.0406818E-3,-3.0995233E-2,7.0439284E-3,-2.925267E-2,3.789034E-2,-6.648053E-3,3.692226E-3,-2.9451735E-2,1.5675614E-2,1.7881771E-3,-1.6126268E-3,-3.8118996E-2,1.3645939E-2,3.0558567E-2,-3.4933062E-3,1.31703E-2,1.2203119E-2,-2.0035818E-2,2.2763755E-2,-0E0,1.0643956E-2,-2.0081911E-4,-6.0570883E-3,1.2698037E-2,4.872047E-3,-1.66995E-2,1.5470763E-2,-6.0289504E-4,-0E0,1.8763887E-2,4.909741E-2,2.3358902E-2,2.2605453E-2,-8.323294E-3,4.6056665E-2,2.1808846E-2,4.5676315E-3,3.6224514E-2,1.22467205E-2,3.9895885E-2,2.3459924E-2,7.05796E-2],"split_indices":[0,2,2,7,2,2,0,2,0,7,7,7,0,7,0,0,7,0,7,0,7,9,7,9,7,9,0,7,5,0,0,0,9,7,7,0,7,7,1,7,7,0,7,7,7,0,7,7,7,0,7,7,5,7,0,0,7,0,0,0,7,7,1,9,0,7,7,7,0,9,7,5,5,9,7,7,0,9,7,5,0,7,5,0,0,9,1,0,0,7,7,0,0,0,9,0,0,7,7,7,9,0,0,7,0,5,5,0,0,7,7,1,0,7,7,9,5,0,7,5,7,0,7,7,0,0,7,5,7,7,9,0,0,0,0,9,9,0,9,9,0,7,0,0,0,0,9,0,0,7,0,9,0,7,7,0,0,0,9,0,0,0,7,7,0,7,0,0,0,0,0,0,7,5,7,9,9,9,0,0,0,7,7,7,0,0,5,9,0,9,0,0,0,0,9,9,9,9,7,0,0,0,0,0,0,9,0,7,7,0,0,7,9,7,5,9,9,0,0,7,7,9,5,0,0,9,0,9,7,7,7,7,7,0,0,7,0,0,7,0,0,2,0,0,9,0,0,9,0,9,9,7,0,0,0,0,0,0,7,0,0,7,0,0,9,7,0,0,0,0,0,0,0,0,0,0,0,0,7,7,0,7,0,7,0,0,0,5,0,0,7,0,9,9,9,9,0,7,0,0,9,7,0,0,0,0,5,0,0,0,9,0,0,7,0,7,0,7,0,9,7,7,0,0,9,7,9,0,0,0,0,0,0,9,0,0,0,9,0,0,5,0,0,0,0,0,0,5,0,0,7,5,0,7,7,7,9,7,0,0,0,0,0,5,0,7,7,7,0,0,0,0,0,0,9,7,0,9,7,0,0,0,7,0,9,0,0,9,0,0,0,0,0,0,0,0,0,0,0,0,0,0,0,0,0,0,0,0,0,0,0,0,0,0,0,0,0,0,0,0,0,0,0,0,0,0,0,0,0,0,0,0,0,0,0,0,0,0,0,0,0,0,0,0,0,0,0,0,0,0,0,0,0,0,0,0,0,0,0,0,0,0,0,0,0,0,0,0,0,0,0,0,0,0,0,0,0,0,0,0,0,0,0,0,0,0,0,0,0,0,0,0,0,0,0,0,0,0,0,0,0,0,0,0,0,0,0,0,0,0,0,0,0,0,0,0,0,0,0,0,0,0,0,0,0,0,0,0,0,0,0,0,0,0,0,0,0],"split_type":[0,0,0,0,0,0,0,0,0,0,0,0,0,0,0,0,0,0,0,0,0,0,0,0,0,0,0,0,0,0,0,0,0,0,0,0,0,0,0,0,0,0,0,0,0,0,0,0,0,0,0,0,0,0,0,0,0,0,0,0,0,0,0,0,0,0,0,0,0,0,0,0,0,0,0,0,0,0,0,0,0,0,0,0,0,0,0,0,0,0,0,0,0,0,0,0,0,0,0,0,0,0,0,0,0,0,0,0,0,0,0,0,0,0,0,0,0,0,0,0,0,0,0,0,0,0,0,0,0,0,0,0,0,0,0,0,0,0,0,0,0,0,0,0,0,0,0,0,0,0,0,0,0,0,0,0,0,0,0,0,0,0,0,0,0,0,0,0,0,0,0,0,0,0,0,0,0,0,0,0,0,0,0,0,0,0,0,0,0,0,0,0,0,0,0,0,0,0,0,0,0,0,0,0,0,0,0,0,0,0,0,0,0,0,0,0,0,0,0,0,0,0,0,0,0,0,0,0,0,0,0,0,0,0,0,0,0,0,0,0,0,0,0,0,0,0,0,0,0,0,0,0,0,0,0,0,0,0,0,0,0,0,0,0,0,0,0,0,0,0,0,0,0,0,0,0,0,0,0,0,0,0,0,0,0,0,0,0,0,0,0,0,0,0,0,0,0,0,0,0,0,0,0,0,0,0,0,0,0,0,0,0,0,0,0,0,0,0,0,0,0,0,0,0,0,0,0,0,0,0,0,0,0,0,0,0,0,0,0,0,0,0,0,0,0,0,0,0,0,0,0,0,0,0,0,0,0,0,0,0,0,0,0,0,0,0,0,0,0,0,0,0,0,0,0,0,0,0,0,0,0,0,0,0,0,0,0,0,0,0,0,0,0,0,0,0,0,0,0,0,0,0,0,0,0,0,0,0,0,0,0,0,0,0,0,0,0,0,0,0,0,0,0,0,0,0,0,0,0,0,0,0,0,0,0,0,0,0,0,0,0,0,0,0,0,0,0,0,0,0,0,0,0,0,0,0,0,0,0,0,0,0,0,0,0,0,0,0,0,0,0,0,0,0,0,0,0,0,0,0,0,0,0,0,0,0,0,0,0,0,0,0,0,0,0,0,0,0,0,0,0,0,0,0,0,0,0,0,0,0,0,0,0,0,0,0,0,0,0,0,0,0,0,0,0,0,0,0,0,0,0,0,0,0,0,0,0],"sum_hessian":[1.5261E4,1.2048E4,3.213E3,5.954E3,6.094E3,1.88E3,1.333E3,3.77E3,2.184E3,4.511E3,1.583E3,7.27E2,1.153E3,7.61E2,5.72E2,1.184E3,2.586E3,6.19E2,1.565E3,2.914E3,1.597E3,9.41E2,6.42E2,5.28E2,1.99E2,5.33E2,6.2E2,4.26E2,3.35E2,4.1E2,1.62E2,3.7E2,8.14E2,1.171E3,1.415E3,7.6E1,5.43E2,1.354E3,2.11E2,1.524E3,1.39E3,7.06E2,8.91E2,3.14E2,6.27E2,3.89E2,2.53E2,4.55E2,7.3E1,1.51E2,4.8E1,1.9E1,5.14E2,4.94E2,1.26E2,1.2E1,4.14E2,2.69E2,6.6E1,2.76E2,5.38E2,1.071E3,1E2,1.341E3,7.4E1,8.9E1,4.54E2,9.03E2,4.51E2,1.09E2,1.02E2,1.193E3,3.31E2,9.66E2,4.24E2,4.3E2,2.76E2,3.18E2,5.73E2,2.93E2,2.1E1,3.99E2,2.28E2,2.44E2,1.45E2,1.06E2,1.47E2,1.57E2,2.98E2,3.7E1,3.6E1,9E0,1.42E2,9E0,3.9E1,1.1E1,8E0,4.62E2,5.2E1,4.14E2,8E1,1.56E2,2.58E2,2.05E2,3.33E2,6.09E2,4.62E2,2.3E1,7.7E1,1.276E3,6.5E1,4.3E1,4.6E1,2.7E2,1.84E2,6.69E2,2.34E2,1.75E2,2.76E2,7.1E1,3.8E1,2.8E1,7.4E1,9.38E2,2.55E2,2.52E2,7.9E1,3.11E2,6.55E2,3E2,1.24E2,1.72E2,2.58E2,1.21E2,1.55E2,2.18E2,1E2,3.11E2,2.62E2,2.27E2,6.6E1,3.71E2,2.8E1,1.77E2,5.1E1,6.8E1,1.76E2,8.2E1,2.4E1,1.38E2,9E0,1.26E2,3.1E1,1.59E2,1.39E2,9E0,2.8E1,1E1,2.6E1,8E0,3.1E1,1.62E2,3E2,1.9E1,3.3E1,3.73E2,4.1E1,6.7E1,1.3E1,4.6E1,1.1E2,8E0,2.5E2,1.5E2,5.5E1,4.97E2,1.12E2,3.72E2,9E1,1.4E1,9E0,9.4E1,1.182E3,4.5E1,2E1,1.4E1,2.9E1,2.21E2,4.9E1,1.44E2,4E1,4.17E2,2.52E2,1.74E2,6E1,5.1E1,1.24E2,1.66E2,1.1E2,5.1E1,2E1,2.5E1,1.3E1,6.6E1,8E0,8.92E2,4.6E1,9.1E1,1.64E2,5.4E1,2.5E1,2.74E2,3.7E1,3.89E2,2.66E2,2.52E2,4.8E1,1.04E2,2E1,2.8E1,1.44E2,9.1E1,1.67E2,1.43E2,7.5E1,4.4E1,5.6E1,6.7E1,2.44E2,1.26E2,1.36E2,1.82E2,4.5E1,1.8E1,4.8E1,2.53E2,1.18E2,3.8E1,1.39E2,9E0,5.9E1,2.7E1,1.49E2,2.6E1,5.6E1,5.4E1,8.4E1,2.2E1,1.04E2,2.6E1,1.33E2,1.03E2,3.6E1,1.2E1,1.4E1,8E0,2.3E1,1.8E1,2.82E2,1.1E1,8E0,2.97E2,7.6E1,8E0,3.3E1,2.29E2,2.1E1,1.09E2,4.1E1,4.4E1,1.1E1,2.76E2,2.21E2,1.5E1,9.7E1,2.94E2,7.8E1,4E1,5E1,5.4E1,4E1,9.51E2,2.31E2,2.4E1,2.1E1,2.1E1,8E0,2.13E2,8E0,1.07E2,3.7E1,1.33E2,2.84E2,9.6E1,1.56E2,6.3E1,1.11E2,4.9E1,1.1E1,1.2E1,3.9E1,7.4E1,5E1,1.5E1,1.51E2,3.2E1,7.8E1,1.2E1,8E0,8.37E2,5.5E1,3.3E1,1.3E1,6.2E1,2.9E1,1.52E2,1.2E1,4E1,1.4E1,1.71E2,1.03E2,2.8E1,9E0,1.4E1,3.75E2,2.33E2,3.3E1,2.04E2,4.8E1,3.7E1,1.1E1,1.4E1,1.4E1,5.3E1,9.1E1,5.7E1,3.4E1,1.01E2,6.6E1,3.3E1,1.1E2,6.5E1,1E1,8E0,3.6E1,2.9E1,2.7E1,4.6E1,2.1E1,1.38E2,1.06E2,5.7E1,6.9E1,9.2E1,4.4E1,8.7E1,9.5E1,3.2E1,1.3E1,9E0,9E0,9E0,2.44E2,8.1E1,3.7E1,9.4E1,4.5E1,1.9E1,8E0,4E1,1.6E1,1.2E1,1E1,8E0,1.8E1,1.25E2,8E0,1.7E1,8.6E1,2.3E1,1.3E1,1.4E2,1.42E2,1.25E2,1.72E2,1.7E1,1.6E1,1.56E2,7.3E1,9E0,1.2E1,3.1E1,1E1,1.2E1,3.2E1,2.05E2,7.1E1,1.77E2,4.4E1,2.9E1,6.8E1,2.62E2,3.2E1,4.2E1,8E0,4.4E1,1E1,9.2E2,3.1E1,2.18E2,1.3E1,9E0,1.5E1,1.34E2,7.9E1,2.2E1,8.5E1,2.5E1,1.2E1,1.8E1,1.15E2,3E1,2.54E2,6.7E1,2.9E1,1.46E2,1E1,4.4E1,1.9E1,9.7E1,1.4E1,9E0,4E1,2.5E1,1.4E1,5.8E1,1.6E1,1.4E1,3.6E1,2.6E1,1.25E2,3.3E1,4.5E1,1.5E1,8.22E2,4.5E1,1E1,1.3E1,2E1,5.2E1,1E1,1.3E2,2.2E1,2.2E1,1.8E1,1.43E2,2.8E1,4.7E1,5.6E1,1.3E1,1.5E1,2.22E2,1.53E2,1.34E2,9.9E1,1.4E1,1.9E1,1.95E2,9E0,2E1,2.8E1,1.5E1,2.2E1,1E1,4.3E1,5.6E1,3.5E1,2.6E1,3.1E1,1.6E1,1.8E1,8.1E1,2E1,8.7E1,2.3E1,3.3E1,1.3E1,1.2E1,9E0,1.8E1,1.2E2,2.2E1,8.4E1,4.8E1,9E0,1.5E1,5.4E1,6E1,3.2E1,2.2E1,2.2E1,5.3E1,3.4E1,3.8E1,5.7E1,1.5E1,1.7E1,5.9E1,1.85E2,6.4E1,1.7E1,6.4E1,3E1,3.3E1,1.2E1,1.1E1,8E0,3.2E1,8E0,1E1,8E0,1E2,2.5E1,8E0,9E0,2E1,6.6E1,1.31E2,9E0,6.7E1,7.5E1,2.4E1,1.48E2,4.3E1,1.13E2,2.6E1,4.7E1],"tree_param":{"num_deleted":"0","num_feature":"10","num_nodes":"537","size_leaf_vector":"1"}},{"base_weights":[1.307282E-4,-2.1214165E-1,5.8630425E-1,-5.232597E-1,4.0211827E-2,3.706009E-1,9.411625E-1,-6.7940223E-1,-3.0286896E-1,-6.0387097E-2,2.6833838E-1,3.869964E-2,6.05125E-1,4.6721748E-1,1.0673003E0,-9.6179545E-2,-6.2661266E-1,-4.3471384E-1,-1.295438E-1,-1.7145498E-1,1.1858346E-1,1.103291E-1,4.8511803E-1,-1.0858089E-1,2.2534935E-1,4.8481092E-1,9.039604E-1,3.5121816E-1,5.955679E-2,8.4003496E-1,1.376663E0,-8.78574E-1,-4.9411136E-1,-4.8308888E-1,-9.7060405E-2,-2.0049055E-1,1.9447811E-1,-4.694357E-1,-1.2851815E-1,-1.073076E-1,2.3335283E-1,-6.9110404E-4,2.7430728E-1,3.8942787E-1,7.552437E-1,-1.9142807E-1,1.5121225E-1,-1.6319614E-2,3.1583622E-1,3.8919628E-1,6.7537653E-1,7.6641995E-1,8.500479E-2,2.0870447E-1,4.7577357E-1,6.248465E-1,9.3365425E-1,8.883519E-2,1.1320012E-1,-1.160925E0,-8.13627E-1,-5.197322E-1,-2.145939E-2,-6.179025E-1,-4.268795E-1,-2.2020213E-2,-4.8997324E-2,-1.6794804E-1,-5.6482434E-1,5.715944E-2,3.5361134E-2,-4.55928E-2,-3.8253656E-1,-2.0524773E-1,-2.9825792E-2,-6.001368E-1,-5.292826E-2,1.704824E-1,4.8274213E-1,2.0903732E-1,-3.862055E-2,5.6185465E-2,3.5021335E-1,4.829646E-2,3.498024E-1,2.47264E-2,5.8372404E-2,-3.0885562E-1,-3.50999E-2,-2.6433688E-1,2.3759535E-1,-1.3186492E-1,9.903643E-2,3.9627776E-1,1.6382472E-1,1.7235307E-1,4.444536E-1,3.922211E-2,7.1014154E-1,6.012945E-1,6.2060546E-2,-0E0,2.2611691E-1,5.3697556E-1,1.9487286E-2,2.9179683E-2,4.7936626E-2,9.460785E-1,2.4905697E-2,-1.0127017E-1,-6.965008E-2,-9.044383E-1,-5.7757413E-1,-6.5452737E-1,-4.5778564E-1,-1.8208402E-1,1.194671E-1,-4.7115453E-2,-4.266548E-1,-4.471679E-1,-2.2871535E-1,-1.2037372E-1,1.1483807E-2,-2.3883896E-1,5.8020126E-2,-7.820666E-2,1.1512778E-1,2.0182112E-1,6.6542053E-3,-3.4110058E-2,-2.1672675E-1,-1.6391222E-1,-3.1081066E-1,-1.6162543E-1,5.8951538E-2,-6.7355317E-1,-8.996636E-3,-8.1206016E-2,1.58583E-1,1.3321505E-1,2.6946714E-2,2.0934455E-1,5.462167E-1,4.9660564E-3,2.2484401E-2,-3.8409837E-2,-2.1351183E-2,-1.5371244E-1,1.2636854E-1,1.3786296E-2,3.1622525E-2,2.537826E-1,4.253358E-1,-1.8117249E-2,-4.5423153E-1,-1.7670074E-1,9.8373055E-2,-2.8704999E-2,-0E0,1.2449301E-1,3.5988033E-2,2.0356539E-1,-2.929172E-1,-2.9120678E-3,1.8029954E-1,2.7990478E-1,6.312313E-1,2.0489079E-1,-1.5697531E-2,3.9930608E-2,2.1697949E-1,3.4146425E-1,5.1010424E-1,5.6803413E-3,-0E0,3.8852233E-2,5.8939923E-2,2.6741337E-2,5.3241853E-2,8.74498E-2,1.9346576E-2,3.0812165E-1,7.0816463E-1,-1.018819E-3,1.1500383E-2,8.5165364E-1,7.711386E-2,-7.3475406E-2,-4.960687E-2,-4.564561E-2,-2.7041031E-2,-5.0147977E-2,-3.29908E-2,-4.9126157E-1,-2.572031E-1,-1.9040972E-2,-0E0,1.1056533E-2,-0E0,-4.4408436E-3,-3.2341823E-2,-3.784903E-2,-4.098475E-1,-2.8918725E-1,4.2877365E-3,-1.9874296E-1,-0E0,-3.2908034E-1,-1.1636852E-1,-2.0416886E-2,1.1223893E-1,2.4224631E-2,-3.9707115E-3,-0E0,2.3607729E-2,-8.8589955E-3,8.642195E-2,-2.8122875E-1,-0E0,-2.0626344E-1,-7.345696E-2,-4.3269002E-1,-1.8546787E-1,-1.8735092E-2,-2.3925932E-2,-2.0619454E-2,1.525822E-1,-5.450202E-2,-1.3024866E-2,-2.441512E-1,-5.1001668E-2,4.8470706E-2,1.8428843E-2,-0E0,1.6319828E-1,2.3456188E-2,-1.3390271E-2,3.6795124E-1,5.0428208E-2,-6.82312E-2,1.1148287E-1,-2.1296207E-2,3.2927508E-3,1.8536197E-1,-3.5458228E-3,2.173803E-1,3.290613E-2,2.4272208E-1,3.4023136E-2,-3.7004065E-2,-4.332921E-2,-0E0,-2.831904E-1,2.1551274E-1,7.528461E-3,-0E0,2.3809777E-1,-0E0,1.8260783E-2,-4.7210988E-1,1.3778349E-2,-0E0,1.4804389E-2,2.1194778E-1,3.1035574E-2,1.5934553E-2,6.938711E-1,2.345187E-1,-1.6866074E-3,-3.610684E-2,9.525209E-3,2.4383835E-1,-0E0,3.5023034E-1,2.7095305E-3,2.7160907E-2,4.0445365E-2,-1.0992027E-3,1.6436033E-1,3.8837337E-1,-0E0,3.612129E-1,6.015727E-2,6.149541E-2,1.7212601E-2,-5.444509E-1,-4.369751E-1,-3.2439756E-1,-8.049625E-2,-3.1304145E-1,-3.3275373E-2,-9.72071E-2,-4.3911606E-2,-1.6908595E-2,-0E0,-3.4216605E-2,2.2086352E-3,-5.1562972E-2,-3.0018E-1,-1.3768612E-1,2.6381347E-2,4.340568E-2,2.808927E-1,1.63535E-2,1.10098235E-2,-2.49896E-2,-9.783111E-2,-6.4214286E-3,5.883043E-4,-2.1932837E-1,-0E0,-1.1625527E-1,4.6504457E-2,-5.849955E-1,-2.9222694E-1,-1.9443866E-2,-6.139217E-2,-1.3257898E-2,8.06486E-3,-6.4161174E-2,1.9743597E-2,6.3083865E-2,2.4330628E-1,-3.2648838E-1,1.9695517E-3,-9.048506E-2,3.1990103E-2,8.00462E-3,-0E0,1.581619E-1,-4.372889E-2,2.1196479E-2,2.0536374E-1,3.935967E-1,2.0150149E-3,-1.7228611E-1,-3.0602494E-2,-2.196447E-2,2.0594046E-1,-0E0,2.4586123E-1,1.7291365E-2,4.491285E-2,2.2473345E-2,-0E0,-1.0245488E-2,-0E0,1.1524316E-2,-9.060453E-3,-3.3831415E-1,-0E0,5.3931144E-4,1.8647889E-2,-3.0461965E-2,1.1965917E-2,6.378191E-2,-3.318145E-2,2.472484E-2,-0E0,-5.065971E-3,-3.833963E-2,2.6069823E-1,-8.830191E-3,5.426849E-2,1.0652651E-2,-0E0,2.677191E-1,-9.247579E-3,-0E0,8.224454E-2,2.995558E-1,1.6293017E-2,2.8179651E-2,1.5008403E-2,-0E0,4.7968507E-1,-0E0,3.2407884E-2,7.9428355E-5,-4.3229446E-2,-3.117607E-2,-0E0,-3.1356186E-2,-2.7946513E-2,-4.635063E-3,-1.16110565E-2,1.9290241E-3,-1.2524101E-2,-2.531846E-2,1.1216762E-3,-1.4402045E-2,-0E0,-5.982068E-3,-2.381702E-2,-2.5045823E-3,-1.6449032E-2,-5.0177122E-3,-6.3201534E-3,1.1322474E-2,-2.1949934E-3,7.999321E-3,2.5677854E-2,-0E0,3.641896E-3,-0E0,-0E0,-1.1958616E-2,-1.5997898E-2,-4.9975202E-3,-7.2286003E-3,1.828206E-2,-9.3661025E-3,4.014023E-3,-3.2059029E-3,7.7546714E-3,-5.838457E-2,-2.872301E-2,-9.04533E-3,-2.9600317E-2,-1.0849385E-2,1.0772991E-3,-6.005781E-5,1.2865052E-2,-5.505316E-3,-0E0,-4.326418E-3,3.8599481E-3,-0E0,4.934098E-3,-0E0,2.0458765E-2,-0E0,-2.9094916E-2,-8.260397E-3,-4.1020615E-4,-1.6506178E-3,4.0565315E-3,1.5481557E-2,-0E0,-4.483404E-3,-0E0,-1.5080987E-2,8.202032E-3,1.769541E-2,8.628287E-3,1.7868327E-2,3.687692E-2,-0E0,-1.5114719E-2,4.918799E-3,-6.086613E-3,2.5113053E-3,2.8309101E-2,8.4070405E-3,2.7774608E-2,8.757657E-3,-0E0,-4.532889E-3,3.867076E-3,-2.9179312E-2,-0E0,2.2091933E-3,-1.1865981E-2,-2.505334E-3,1.3815489E-2,-1.0712459E-2,1.6196704E-3,2.0520756E-2,-0E0,1.39678E-3,2.1370726E-2,1.4373947E-2,-6.276832E-3,7.998882E-3,3.559757E-2,5.1878765E-3,3.8195927E-2],"categories":[],"categories_nodes":[],"categories_segments":[],"categories_sizes":[],"default_left":[0,0,0,0,0,0,0,0,0,0,0,0,0,0,0,0,0,0,0,0,0,0,0,0,0,0,0,0,0,0,0,0,0,0,0,0,0,0,0,0,0,0,0,0,0,0,0,0,0,0,0,0,0,0,0,0,0,0,0,0,0,0,0,0,0,0,0,0,0,0,0,0,0,0,0,0,0,0,0,0,0,0,0,0,0,0,0,0,0,0,0,0,0,0,0,0,0,0,0,0,0,0,0,0,0,0,0,0,0,0,0,0,0,0,0,0,0,0,0,0,0,0,0,0,0,0,0,0,0,0,0,0,0,0,0,0,0,0,0,0,0,0,0,0,0,0,0,0,0,0,0,0,0,0,0,0,0,0,0,0,0,0,0,0,0,0,0,0,0,0,0,0,0,0,0,0,0,0,0,0,0,0,0,0,0,0,0,0,0,0,0,0,0,0,0,0,0,0,0,0,0,0,0,0,0,0,0,0,0,0,0,0,0,0,0,0,0,0,0,0,0,0,0,0,0,0,0,0,0,0,0,0,0,0,0,0,0,0,0,0,0,0,0,0,0,0,0,0,0,0,0,0,0,0,0,0,0,0,0,0,0,0,0,0,0,0,0,0,0,0,0,0,0,0,0,0,0,0,0,0,0,0,0,0,0,0,0,0,0,0,0,0,0,0,0,0,0,0,0,0,0,0,0,0,0,0,0,0,0,0,0,0,0,0,0,0,0,0,0,0,0,0,0,0,0,0,0,0,0,0,0,0,0,0,0,0,0,0,0,0,0,0,0,0,0,0,0,0,0,0,0,0,0,0,0,0,0,0,0,0,0,0,0,0,0,0,0,0,0,0,0,0,0,0,0,0,0,0,0,0,0,0,0,0,0,0,0,0,0,0,0,0,0,0,0,0,0,0,0,0,0,0,0,0,0,0,0,0,0,0,0,0,0,0,0,0,0,0,0,0,0,0,0,0,0,0,0,0,0,0,0,0,0,0,0,0,0,0,0,0,0,0,0,0,0,0,0,0,0,0,0,0,0,0,0,0,0,0,0,0,0,0,0,0,0,0,0,0,0,0,0,0,0,0,0,0,0],"id":3,"left_children":[1,3,5,7,9,11,13,15,17,19,21,23,25,27,29,-1,31,33,35,37,39,41,43,45,47,49,51,53,-1,55,57,59,61,63,65,67,69,71,73,75,77,79,81,83,85,87,89,91,93,95,97,99,-1,101,103,105,107,-1,-1,109,111,113,115,117,119,-1,121,123,125,127,-1,-1,129,131,133,135,137,139,141,143,145,147,149,-1,151,-1,-1,153,155,157,159,161,163,165,167,169,171,173,175,177,-1,-1,179,181,183,-1,-1,185,-1,-1,-1,187,189,191,193,195,197,-1,199,201,203,205,-1,207,209,-1,211,213,215,-1,217,219,221,223,225,227,-1,229,231,233,-1,235,237,-1,-1,-1,239,241,243,-1,-1,245,247,-1,249,251,253,-1,-1,255,-1,257,259,-1,261,263,265,267,-1,269,271,273,275,-1,-1,-1,-1,-1,-1,277,-1,279,281,-1,-1,283,-1,-1,-1,-1,-1,-1,-1,285,287,-1,-1,-1,-1,-1,-1,-1,289,291,-1,293,295,297,299,-1,301,-1,-1,-1,-1,-1,303,305,307,309,311,313,315,-1,317,319,321,-1,-1,323,325,327,-1,329,331,-1,-1,333,-1,335,337,-1,-1,339,-1,341,-1,343,-1,345,-1,347,349,351,353,355,357,-1,-1,359,-1,-1,-1,361,-1,-1,363,365,-1,367,-1,369,-1,371,-1,-1,-1,-1,373,375,-1,377,-1,-1,-1,379,381,383,385,387,-1,389,-1,-1,-1,391,-1,-1,393,395,397,399,401,403,-1,-1,405,-1,-1,407,409,411,413,415,417,-1,419,-1,421,423,425,427,429,431,-1,433,435,-1,-1,437,439,441,443,445,-1,447,449,-1,451,-1,453,-1,455,-1,457,-1,-1,-1,-1,459,-1,-1,-1,461,-1,463,465,-1,-1,-1,-1,467,-1,-1,-1,-1,469,-1,-1,471,473,-1,-1,-1,-1,475,-1,-1,-1,-1,-1,-1,-1,-1,-1,-1,-1,-1,-1,-1,-1,-1,-1,-1,-1,-1,-1,-1,-1,-1,-1,-1,-1,-1,-1,-1,-1,-1,-1,-1,-1,-1,-1,-1,-1,-1,-1,-1,-1,-1,-1,-1,-1,-1,-1,-1,-1,-1,-1,-1,-1,-1,-1,-1,-1,-1,-1,-1,-1,-1,-1,-1,-1,-1,-1,-1,-1,-1,-1,-1,-1,-1,-1,-1,-1,-1,-1,-1,-1,-1,-1,-1,-1,-1,-1,-1,-1,-1,-1,-1,-1,-1,-1,-1,-1,-1,-1],"loss_changes":[1.8981736E3,8.796145E2,3.0775195E2,1.7075647E2,1.4218404E2,1.9608966E2,8.79353E1,9.9696655E1,4.6872787E1,8.5391266E1,6.405267E1,2.9175005E1,5.010785E1,1.1847214E1,7.814868E1,0E0,8.793616E1,1.8434906E1,2.108138E1,3.3009003E1,4.275858E1,2.0436863E1,1.8207214E1,1.278196E1,1.064323E1,1.7260086E1,1.16345825E1,3.4453506E0,0E0,1.0397705E1,3.678955E0,1.1628784E1,2.1067902E1,5.671051E0,1.1063985E0,7.7178993E0,6.0144124E0,2.9300385E0,1.7309181E1,1.387364E1,1.606224E1,5.0465307E0,6.895092E0,4.8844604E0,3.243599E0,7.810499E0,5.204754E0,1.7782538E0,3.3282394E0,7.64167E0,6.675308E0,1.8639832E0,0E0,5.3348017E-1,2.952299E0,2.7201843E-1,8.1430054E-1,0E0,0E0,3.0340576E-1,1.3055023E1,1.1887054E1,2.3705351E0,3.513565E-1,1.8326416E0,0E0,2.0496738E0,1.1450542E1,2.2589975E1,6.052412E-1,0E0,0E0,2.6171684E0,4.9339867E0,1.2187303E1,5.613842E-1,2.9512334E0,6.100092E0,2.4260674E0,9.0344906E-1,4.180936E0,1.8597175E0,3.8603134E0,0E0,2.7113724E0,0E0,0E0,7.078724E-1,3.9551816E0,3.8462377E-1,2.6997514E0,4.096399E0,8.797421E-1,4.283764E0,2.1876957E0,5.818906E-1,2.2394333E0,4.2896427E-2,3.2828674E0,2.182747E0,0E0,0E0,2.7826405E-1,2.4903374E0,2.906923E-1,0E0,0E0,8.937988E-1,0E0,0E0,0E0,1.0375336E1,9.1889954E-1,2.7510834E0,6.623108E0,5.5692375E-1,3.113842E-1,0E0,4.63295E-2,2.993927E-1,1.7564249E0,1.0229503E0,0E0,5.2591515E0,2.9913907E0,0E0,1.467792E0,3.7116057E-1,1.0092567E0,0E0,1.0668583E0,3.2500286E0,4.3978004E0,5.5752506E0,4.7250338E0,3.5781097E-1,0E0,1.815603E0,2.0019531E-1,3.0633335E0,0E0,2.762343E0,2.7977676E0,0E0,0E0,0E0,3.4045756E0,1.1851264E0,1.2278488E0,0E0,0E0,7.6779175E-1,1.6266861E0,0E0,2.8913689E0,1.6876578E0,8.0002666E-1,0E0,0E0,1.0216196E0,0E0,2.4079382E-2,5.1106005E0,0E0,1.4376915E-1,5.7450104E-1,6.021309E-2,1.1033278E0,0E0,4.966043E-1,4.601822E-1,1.1608696E-1,6.921463E-1,0E0,0E0,0E0,0E0,0E0,0E0,5.242789E-1,0E0,1.6909547E0,4.2526817E-1,0E0,0E0,9.261322E-1,0E0,0E0,0E0,0E0,0E0,0E0,0E0,9.352875E-1,1.573575E0,0E0,0E0,0E0,0E0,0E0,0E0,0E0,1.3997192E0,3.450882E0,0E0,6.255131E-1,5.1526777E-2,1.5093727E0,8.724954E-1,0E0,1.2858708E0,0E0,0E0,0E0,0E0,0E0,1.120165E-1,2.722087E-1,1.1004281E-1,1.5172844E0,1.7313226E0,2.0613098E0,1.5799999E0,0E0,1.205904E0,6.316321E-1,1.9169955E0,0E0,0E0,1.80967E0,1.3594471E0,1.7312685E-1,0E0,9.748471E-1,3.4232883E0,0E0,0E0,2.4341583E-1,0E0,1.3652269E0,5.583061E0,0E0,0E0,7.6344466E-1,0E0,6.4727783E-1,0E0,1.4500542E0,0E0,2.4767601E-1,0E0,9.7680604E-1,9.534168E-1,4.2123437E-2,5.91476E-1,1.5376468E-1,1.108685E0,0E0,0E0,2.393446E-1,0E0,0E0,0E0,2.243987E0,0E0,0E0,5.933075E-1,5.980568E-1,0E0,2.2924016E-1,0E0,3.030343E-1,0E0,2.3576927E-1,0E0,0E0,0E0,0E0,1.5379071E-1,1.6733594E0,0E0,3.1293797E-1,0E0,0E0,0E0,1.1637115E0,9.955902E-1,1.6261959E0,7.130767E-1,3.7647247E-1,0E0,8.5320115E-1,0E0,0E0,0E0,7.544063E-2,0E0,0E0,2.2617073E0,9.367976E-1,5.3680754E-1,7.016851E-1,9.014902E-1,6.751202E-2,0E0,0E0,6.87322E-2,0E0,0E0,1.5699387E-1,1.1356163E0,7.834146E-1,5.4609036E-1,6.489887E-1,1.2326679E0,0E0,7.8863764E-1,0E0,4.5940655E-1,7.71395E-2,4.4399408E-1,3.8835526E-2,1.6843052E0,1.5529976E0,0E0,4.5680404E-1,2.108406E-1,0E0,0E0,2.0967638E-1,1.067867E-1,3.3302414E0,1.1961842E0,9.0008736E-2,0E0,7.369225E-1,1.7994984E0,0E0,3.2930603E0,0E0,3.0914545E-1,0E0,2.127006E-1,0E0,8.652966E-2,0E0,0E0,0E0,0E0,1.2981453E0,0E0,0E0,0E0,6.0736525E-1,0E0,6.232888E-1,3.2798007E-1,0E0,0E0,0E0,0E0,4.7957754E-1,0E0,0E0,0E0,0E0,3.8908815E-1,0E0,0E0,9.0297973E-1,1.4601927E0,0E0,0E0,0E0,0E0,4.8109055E-2,0E0,0E0,0E0,0E0,0E0,0E0,0E0,0E0,0E0,0E0,0E0,0E0,0E0,0E0,0E0,0E0,0E0,0E0,0E0,0E0,0E0,0E0,0E0,0E0,0E0,0E0,0E0,0E0,0E0,0E0,0E0,0E0,0E0,0E0,0E0,0E0,0E0,0E0,0E0,0E0,0E0,0E0,0E0,0E0,0E0,0E0,0E0,0E0,0E0,0E0,0E0,0E0,0E0,0E0,0E0,0E0,0E0,0E0,0E0,0E0,0E0,0E0,0E0,0E0,0E0,0E0,0E0,0E0,0E0,0E0,0E0,0E0,0E0,0E0,0E0,0E0,0E0,0E0,0E0,0E0,0E0,0E0,0E0,0E0,0E0,0E0,0E0,0E0,0E0,0E0,0E0,0E0,0E0,0E0,0E0,0E0,0E0,0E0,0E0,0E0,0E0],"parents":[2147483647,0,0,1,1,2,2,3,3,4,4,5,5,6,6,7,7,8,8,9,9,10,10,11,11,12,12,13,13,14,14,16,16,17,17,18,18,19,19,20,20,21,21,22,22,23,23,24,24,25,25,26,26,27,27,29,29,30,30,31,31,32,32,33,33,34,34,35,35,36,36,37,37,38,38,39,39,40,40,41,41,42,42,43,43,44,44,45,45,46,46,47,47,48,48,49,49,50,50,51,51,53,53,54,54,55,55,56,56,59,59,60,60,61,61,62,62,63,63,64,64,66,66,67,67,68,68,69,69,72,72,73,73,74,74,75,75,76,76,77,77,78,78,79,79,80,80,81,81,82,82,84,84,87,87,88,88,89,89,90,90,91,91,92,92,93,93,94,94,95,95,96,96,97,97,98,98,99,99,102,102,103,103,104,104,107,107,111,111,112,112,113,113,114,114,115,115,116,116,118,118,119,119,120,120,121,121,123,123,124,124,126,126,127,127,128,128,130,130,131,131,132,132,133,133,134,134,135,135,137,137,138,138,139,139,141,141,142,142,146,146,147,147,148,148,151,151,152,152,154,154,155,155,156,156,159,159,161,161,162,162,164,164,165,165,166,166,167,167,169,169,170,170,171,171,172,172,179,179,181,181,182,182,185,185,193,193,194,194,202,202,203,203,205,205,206,206,207,207,208,208,210,210,216,216,217,217,218,218,219,219,220,220,221,221,222,222,224,224,225,225,226,226,229,229,230,230,231,231,233,233,234,234,237,237,239,239,240,240,243,243,245,245,247,247,249,249,251,251,252,252,253,253,254,254,255,255,256,256,259,259,263,263,266,266,267,267,269,269,271,271,273,273,278,278,279,279,281,281,285,285,286,286,287,287,288,288,289,289,291,291,295,295,298,298,299,299,300,300,301,301,302,302,303,303,306,306,309,309,310,310,311,311,312,312,313,313,314,314,316,316,318,318,319,319,320,320,321,321,322,322,323,323,325,325,326,326,329,329,330,330,331,331,332,332,333,333,335,335,336,336,338,338,340,340,342,342,344,344,349,349,353,353,355,355,356,356,361,361,366,366,369,369,370,370,375,375],"right_children":[2,4,6,8,10,12,14,16,18,20,22,24,26,28,30,-1,32,34,36,38,40,42,44,46,48,50,52,54,-1,56,58,60,62,64,66,68,70,72,74,76,78,80,82,84,86,88,90,92,94,96,98,100,-1,102,104,106,108,-1,-1,110,112,114,116,118,120,-1,122,124,126,128,-1,-1,130,132,134,136,138,140,142,144,146,148,150,-1,152,-1,-1,154,156,158,160,162,164,166,168,170,172,174,176,178,-1,-1,180,182,184,-1,-1,186,-1,-1,-1,188,190,192,194,196,198,-1,200,202,204,206,-1,208,210,-1,212,214,216,-1,218,220,222,224,226,228,-1,230,232,234,-1,236,238,-1,-1,-1,240,242,244,-1,-1,246,248,-1,250,252,254,-1,-1,256,-1,258,260,-1,262,264,266,268,-1,270,272,274,276,-1,-1,-1,-1,-1,-1,278,-1,280,282,-1,-1,284,-1,-1,-1,-1,-1,-1,-1,286,288,-1,-1,-1,-1,-1,-1,-1,290,292,-1,294,296,298,300,-1,302,-1,-1,-1,-1,-1,304,306,308,310,312,314,316,-1,318,320,322,-1,-1,324,326,328,-1,330,332,-1,-1,334,-1,336,338,-1,-1,340,-1,342,-1,344,-1,346,-1,348,350,352,354,356,358,-1,-1,360,-1,-1,-1,362,-1,-1,364,366,-1,368,-1,370,-1,372,-1,-1,-1,-1,374,376,-1,378,-1,-1,-1,380,382,384,386,388,-1,390,-1,-1,-1,392,-1,-1,394,396,398,400,402,404,-1,-1,406,-1,-1,408,410,412,414,416,418,-1,420,-1,422,424,426,428,430,432,-1,434,436,-1,-1,438,440,442,444,446,-1,448,450,-1,452,-1,454,-1,456,-1,458,-1,-1,-1,-1,460,-1,-1,-1,462,-1,464,466,-1,-1,-1,-1,468,-1,-1,-1,-1,470,-1,-1,472,474,-1,-1,-1,-1,476,-1,-1,-1,-1,-1,-1,-1,-1,-1,-1,-1,-1,-1,-1,-1,-1,-1,-1,-1,-1,-1,-1,-1,-1,-1,-1,-1,-1,-1,-1,-1,-1,-1,-1,-1,-1,-1,-1,-1,-1,-1,-1,-1,-1,-1,-1,-1,-1,-1,-1,-1,-1,-1,-1,-1,-1,-1,-1,-1,-1,-1,-1,-1,-1,-1,-1,-1,-1,-1,-1,-1,-1,-1,-1,-1,-1,-1,-1,-1,-1,-1,-1,-1,-1,-1,-1,-1,-1,-1,-1,-1,-1,-1,-1,-1,-1,-1,-1,-1,-1,-1],"split_conditions":[4E0,5.8935066E4,6.4E1,3E0,1.0047847E5,6.5E4,4.999375E4,2.5498008E4,4.875E1,4.475E1,3E0,4.309091E4,5E0,1E2,5E0,-9.6179545E-2,2E0,5.15625E4,4.6368242E4,2E0,3E0,3.875E1,5.2142857E1,5E0,4.625E1,1.05555555E5,6E0,5E0,5.955679E-2,4E0,1.1142857E2,1E0,5.65E1,3.788923E4,3.3E1,1.0625E2,6.26E1,3.125E1,7.2802195E4,1E0,6.3333332E1,1.5E1,2E0,1.5E1,3E0,4.95E1,3.1428572E4,2.6E1,6.0869566E4,4.0333332E1,3.3333332E1,8.275924E4,8.500479E-2,6.5E1,9.1666664E1,6.9E1,1.5E5,8.883519E-2,1.1320012E-1,4.325E1,3.7666668E1,3.788923E4,4.1566668E4,4.575E1,4E0,-2.2020213E-2,5.85E4,6.26E1,8E0,5.098039E4,3.5361134E-2,-4.55928E-2,7.2802195E4,9E0,3.45E1,8E1,5.9333332E1,7.2802195E4,6.551192E4,2E0,2.3E1,1E0,4.275E1,4.829646E-2,4.125E1,2.47264E-2,5.8372404E-2,5E0,5.5E1,3E0,6E0,1E0,4.787143E4,5E0,7E0,1E0,4E0,3.2E1,4E0,5.125E1,6.2060546E-2,-0E0,4E0,7.26E1,6.5E1,2.9179683E-2,4.7936626E-2,8.5E1,2.4905697E-2,-1.0127017E-1,-6.965008E-2,5.15625E4,4.999375E4,4.65E1,4.5333332E1,6.7E1,5.3546875E4,-4.7115453E-2,1.4E1,3.85E1,4.625E1,3.1E1,1.1483807E-2,3.919452E4,2.8782895E4,-7.820666E-2,1.5E2,5.542857E1,5.15625E4,-3.4110058E-2,2E0,1E0,6.2288137E4,3E0,3E0,6.6666664E4,-8.996636E-3,6.590909E4,9.3916664E4,4.65E1,2.6946714E-2,8.72E1,7.2E1,4.9660564E-3,2.2484401E-2,-3.8409837E-2,3E0,6.25E1,8.1E1,1.3786296E-2,3.1622525E-2,4E0,3E0,-1.8117249E-2,6.6E1,1E0,5.3333332E1,-2.8704999E-2,-0E0,5.5E1,3.5988033E-2,3.85E1,5E0,-2.9120678E-3,5.6E1,5.6E1,5.15E1,6.2E1,-1.5697531E-2,4E0,4E1,8.4E1,1E0,5.6803413E-3,-0E0,3.8852233E-2,5.8939923E-2,2.6741337E-2,5.3241853E-2,7E1,1.9346576E-2,7.2E1,4.3E1,-1.018819E-3,1.1500383E-2,6E0,7.711386E-2,-7.3475406E-2,-4.960687E-2,-4.564561E-2,-2.7041031E-2,-5.0147977E-2,-3.29908E-2,3E0,3E0,-1.9040972E-2,-0E0,1.1056533E-2,-0E0,-4.4408436E-3,-3.2341823E-2,-3.784903E-2,4.6E1,4.3666668E1,4.2877365E-3,4E0,4.1333332E1,1.8183674E4,4E0,-2.0416886E-2,8E1,2.4224631E-2,-3.9707115E-3,-0E0,2.3607729E-2,-8.8589955E-3,5.542857E1,3.725E1,3.2E1,6E0,4.2666668E1,3.85E1,1E0,-1.8735092E-2,2.875E1,1E0,1E0,-5.450202E-2,-1.3024866E-2,5.4285713E1,1E0,3E0,1.8428843E-2,6.590909E4,6.576703E4,2.3456188E-2,-1.3390271E-2,7.5E4,5.0428208E-2,3.25E1,6.9E1,-2.1296207E-2,3.2927508E-3,1.5E1,-3.5458228E-3,3.9E1,3.290613E-2,8.2E1,3.4023136E-2,4E1,-4.332921E-2,1.4E1,5.875E1,4E0,6.125E1,5E0,5.65E1,-0E0,1.8260783E-2,5.8935066E4,1.3778349E-2,-0E0,1.4804389E-2,3.5E1,3.1035574E-2,1.5934553E-2,5.7E1,1E0,-1.6866074E-3,3.65E1,9.525209E-3,3.5333332E1,-0E0,1E0,2.7095305E-3,2.7160907E-2,4.0445365E-2,-1.0992027E-3,6.6E1,6E0,-0E0,8.22E1,6.015727E-2,6.149541E-2,1.7212601E-2,3.925E1,4E0,5.15625E4,4.6725E4,4.125E1,-3.3275373E-2,4.1566668E4,-4.3911606E-2,-1.6908595E-2,-0E0,4.0333332E1,2.2086352E-3,-5.1562972E-2,4E0,5.15E1,8E0,5.5E1,9.1666664E1,5.15E1,1.10098235E-2,-2.49896E-2,7.2E1,-6.4214286E-3,5.883043E-4,4E0,4.35E1,4E0,3E0,2.6E1,4.15E1,-1.9443866E-2,3E0,-1.3257898E-2,4E0,4.125E1,8.275924E4,3.5666668E1,3E0,9E0,1.9695517E-3,5.175E1,2E0,8.00462E-3,-0E0,1E0,1E0,4.98E1,5.475E1,1E0,2.0150149E-3,2.775E1,3.45E1,-2.196447E-2,3.45E1,-0E0,4.5333332E1,1.7291365E-2,1E0,2.2473345E-2,4.8E1,-1.0245488E-2,-0E0,1.1524316E-2,-9.060453E-3,5.3E1,-0E0,5.3931144E-4,1.8647889E-2,6E1,1.1965917E-2,4.8E1,2.4E1,2.472484E-2,-0E0,-5.065971E-3,-3.833963E-2,5.875E1,-8.830191E-3,5.426849E-2,1.0652651E-2,-0E0,4.9E1,-9.247579E-3,-0E0,4E0,4E0,1.6293017E-2,2.8179651E-2,1.5008403E-2,-0E0,3.1428572E4,-0E0,3.2407884E-2,7.9428355E-5,-4.3229446E-2,-3.117607E-2,-0E0,-3.1356186E-2,-2.7946513E-2,-4.635063E-3,-1.16110565E-2,1.9290241E-3,-1.2524101E-2,-2.531846E-2,1.1216762E-3,-1.4402045E-2,-0E0,-5.982068E-3,-2.381702E-2,-2.5045823E-3,-1.6449032E-2,-5.0177122E-3,-6.3201534E-3,1.1322474E-2,-2.1949934E-3,7.999321E-3,2.5677854E-2,-0E0,3.641896E-3,-0E0,-0E0,-1.1958616E-2,-1.5997898E-2,-4.9975202E-3,-7.2286003E-3,1.828206E-2,-9.3661025E-3,4.014023E-3,-3.2059029E-3,7.7546714E-3,-5.838457E-2,-2.872301E-2,-9.04533E-3,-2.9600317E-2,-1.0849385E-2,1.0772991E-3,-6.005781E-5,1.2865052E-2,-5.505316E-3,-0E0,-4.326418E-3,3.8599481E-3,-0E0,4.934098E-3,-0E0,2.0458765E-2,-0E0,-2.9094916E-2,-8.260397E-3,-4.1020615E-4,-1.6506178E-3,4.0565315E-3,1.5481557E-2,-0E0,-4.483404E-3,-0E0,-1.5080987E-2,8.202032E-3,1.769541E-2,8.628287E-3,1.7868327E-2,3.687692E-2,-0E0,-1.5114719E-2,4.918799E-3,-6.086613E-3,2.5113053E-3,2.8309101E-2,8.4070405E-3,2.7774608E-2,8.757657E-3,-0E0,-4.532889E-3,3.867076E-3,-2.9179312E-2,-0E0,2.2091933E-3,-1.1865981E-2,-2.505334E-3,1.3815489E-2,-1.0712459E-2,1.6196704E-3,2.0520756E-2,-0E0,1.39678E-3,2.1370726E-2,1.4373947E-2,-6.276832E-3,7.998882E-3,3.559757E-2,5.1878765E-3,3.8195927E-2],"split_indices":[2,8,9,2,8,8,8,8,9,9,2,8,2,9,1,0,2,8,8,2,1,9,9,2,9,8,2,2,0,1,9,1,9,8,9,9,9,9,8,1,9,7,1,7,1,9,8,7,8,9,9,8,0,9,9,9,8,0,0,9,9,8,8,9,1,0,8,9,7,8,0,0,8,7,9,9,9,8,8,1,9,1,9,0,9,0,0,1,7,7,2,3,8,2,2,3,1,9,1,9,0,0,1,9,7,0,0,9,0,0,0,8,8,9,9,9,8,0,7,9,9,7,0,8,8,0,9,9,8,0,1,3,8,1,1,8,0,8,8,9,0,9,9,0,0,0,1,9,7,0,0,1,1,0,7,3,9,0,0,7,0,9,2,0,7,7,9,9,0,1,9,7,3,0,0,0,0,0,0,9,0,9,7,0,0,2,0,0,0,0,0,0,0,1,1,0,0,0,0,0,0,0,7,9,0,1,9,8,1,0,9,0,0,0,0,0,9,9,9,7,9,9,3,0,9,3,3,0,0,9,3,2,0,8,8,0,0,8,0,9,7,0,0,7,0,9,0,7,0,9,0,7,9,1,9,1,9,0,0,8,0,0,0,7,0,0,7,3,0,9,0,9,0,3,0,0,0,0,7,1,0,9,0,0,0,9,7,8,8,9,0,8,0,0,0,9,0,0,1,9,7,7,9,9,0,0,7,0,0,1,9,1,2,7,9,0,2,0,1,9,8,9,2,7,0,9,1,0,0,3,3,9,9,3,0,9,9,0,9,0,9,0,3,0,9,0,0,0,0,7,0,0,0,9,0,9,7,0,